{"learner":{"attributes":{"best_iteration":"552","best_ntree_limit":"553","scikit_learn":"{\"n_estimators\": 553, \"objective\": \"reg:squarederror\", \"max_depth\": null, \"max_leaves\": null, \"max_bin\": null, \"grow_policy\": null, \"learning_rate\": 0.010594335669274878, \"verbosity\": null, \"booster\": null, \"tree_method\": null, \"gamma\": null, \"min_child_weight\": null, \"max_delta_step\": null, \"subsample\": null, \"sampling_method\": null, \"colsample_bytree\": null, \"colsample_bylevel\": null, \"colsample_bynode\": null, \"reg_alpha\": null, \"reg_lambda\": null, \"scale_pos_weight\": null, \"base_score\": null, \"missing\": NaN, \"num_parallel_tree\": null, \"random_state\": null, \"n_jobs\": null, \"monotone_constraints\": null, \"interaction_constraints\": null, \"importance_type\": null, \"gpu_id\": null, \"validate_parameters\": null, \"predictor\": null, \"enable_categorical\": false, \"feature_types\": null, \"max_cat_to_onehot\": null, \"max_cat_threshold\": null, \"eval_metric\": null, \"early_stopping_rounds\": null, \"callbacks\": null, \"kwargs\": {\"lambda\": 0.07167133499406966}, \"_estimator_type\": \"regressor\"}"},"feature_names":["clonesize","honeybee","bumbles","andrena","osmia","MaxOfUpperTRange","MinOfUpperTRange","AverageOfUpperTRange","MaxOfLowerTRange","MinOfLowerTRange","AverageOfLowerTRange","RainingDays","AverageRainingDays","fruitset","fruitmass","seeds"],"feature_types":["float","float","float","float","float","float","float","float","float","float","float","float","float","float","float","float"],"gradient_booster":{"model":{"gbtree_model_param":{"num_parallel_tree":"1","num_trees":"553","size_leaf_vector":"0"},"tree_info":[0,0,0,0,0,0,0,0,0,0,0,0,0,0,0,0,0,0,0,0,0,0,0,0,0,0,0,0,0,0,0,0,0,0,0,0,0,0,0,0,0,0,0,0,0,0,0,0,0,0,0,0,0,0,0,0,0,0,0,0,0,0,0,0,0,0,0,0,0,0,0,0,0,0,0,0,0,0,0,0,0,0,0,0,0,0,0,0,0,0,0,0,0,0,0,0,0,0,0,0,0,0,0,0,0,0,0,0,0,0,0,0,0,0,0,0,0,0,0,0,0,0,0,0,0,0,0,0,0,0,0,0,0,0,0,0,0,0,0,0,0,0,0,0,0,0,0,0,0,0,0,0,0,0,0,0,0,0,0,0,0,0,0,0,0,0,0,0,0,0,0,0,0,0,0,0,0,0,0,0,0,0,0,0,0,0,0,0,0,0,0,0,0,0,0,0,0,0,0,0,0,0,0,0,0,0,0,0,0,0,0,0,0,0,0,0,0,0,0,0,0,0,0,0,0,0,0,0,0,0,0,0,0,0,0,0,0,0,0,0,0,0,0,0,0,0,0,0,0,0,0,0,0,0,0,0,0,0,0,0,0,0,0,0,0,0,0,0,0,0,0,0,0,0,0,0,0,0,0,0,0,0,0,0,0,0,0,0,0,0,0,0,0,0,0,0,0,0,0,0,0,0,0,0,0,0,0,0,0,0,0,0,0,0,0,0,0,0,0,0,0,0,0,0,0,0,0,0,0,0,0,0,0,0,0,0,0,0,0,0,0,0,0,0,0,0,0,0,0,0,0,0,0,0,0,0,0,0,0,0,0,0,0,0,0,0,0,0,0,0,0,0,0,0,0,0,0,0,0,0,0,0,0,0,0,0,0,0,0,0,0,0,0,0,0,0,0,0,0,0,0,0,0,0,0,0,0,0,0,0,0,0,0,0,0,0,0,0,0,0,0,0,0,0,0,0,0,0,0,0,0,0,0,0,0,0,0,0,0,0,0,0,0,0,0,0,0,0,0,0,0,0,0,0,0,0,0,0,0,0,0,0,0,0,0,0,0,0,0,0,0,0,0,0,0,0,0,0,0,0,0,0,0,0,0,0,0,0,0,0,0,0,0,0,0,0,0,0,0,0,0,0,0,0,0,0,0,0,0,0,0,0,0,0,0,0,0,0,0,0,0,0,0,0,0,0,0,0,0,0,0,0,0,0,0,0,0,0,0,0,0,0,0,0,0,0,0,0,0,0,0,0,0],"trees":[{"base_weights":[6.0246655E3,4.9771543E3,6.9611704E3,4.10118E3,5.540518E3,6.5113984E3,7.460433E3,3.6167102E3,4.4076616E3,5.100696E3,5.666569E3,6.2767275E3,6.6546436E3,7.2383066E3,7.9303037E3,2.6420007E3,3.7308877E3,4.248327E3,4.6260063E3,5.068357E3,5.8904673E3,5.527763E3,5.882852E3,6.3483784E3,6.163862E3,6.5611353E3,6.823401E3,7.0624414E3,7.3415757E3,7.656163E3,8.1232114E3,2.1016243E3,2.7093481E3,3.3445613E3,3.800961E3,4.2393984E3,5.9418823E3,4.6055312E3,5.2119604E3,4.90818E3,5.236482E3,6.4061816E3,5.3526167E3,5.66863E3,5.4532085E3,5.8587056E3,7.235677E3,6.336686E3,6.8867485E3,6.3780127E3,6.089065E3,6.7911504E3,6.441067E3,7.1633237E3,6.7690557E3,7.2435527E3,7.0243467E3,7.266935E3,7.459195E3,7.655323E3,8.1521587E3,2.503201E3,2.7605334E3,3.25135E3,3.826654E3,3.7832417E3,5.2149155E3,4.1458403E3,4.3608364E3,4.6085107E3,2.3401538E3,6.1943833E3,4.5958535E3,3.818302E3,4.914421E3,5.463701E3,5.1010337E3,5.8033867E3,4.026285E3,5.6069473E3,5.7882607E3,5.3581294E3,5.556754E3,5.7986245E3,6.095115E3,6.982723E3,8.034763E3,6.443737E3,6.29871E3,6.1126616E3,6.448204E3,5.6549756E3,6.142471E3,6.774548E3,7.684182E3,5.80819E3,6.482979E3,6.657963E3,7.221163E3,6.2781797E3,6.7847593E3,6.9417324E3,7.1148066E3,7.501922E3,7.306673E3,7.73395E3,6.450974E3,8.107958E3,8.409814E3],"categories":[],"categories_nodes":[],"categories_segments":[],"categories_sizes":[],"default_left":[1,1,1,1,1,1,1,1,1,1,1,1,1,1,1,1,1,1,1,1,1,1,1,1,1,1,1,1,1,0,1,0,1,1,1,1,0,1,1,1,1,0,1,1,1,1,1,1,0,1,1,1,1,1,1,0,1,0,1,1,1,0,0,0,0,0,0,0,0,0,0,0,0,0,0,0,0,0,0,0,0,0,0,0,0,0,0,0,0,0,0,0,0,0,0,0,0,0,0,0,0,0,0,0,0,0,0,0,0],"id":0,"left_children":[1,3,5,7,9,11,13,15,17,19,21,23,25,27,29,31,33,35,37,39,41,43,45,47,49,51,53,55,57,-1,59,-1,61,63,65,67,-1,69,71,73,75,-1,77,79,81,83,85,87,-1,89,91,93,95,97,99,-1,101,-1,103,105,107,-1,-1,-1,-1,-1,-1,-1,-1,-1,-1,-1,-1,-1,-1,-1,-1,-1,-1,-1,-1,-1,-1,-1,-1,-1,-1,-1,-1,-1,-1,-1,-1,-1,-1,-1,-1,-1,-1,-1,-1,-1,-1,-1,-1,-1,-1,-1,-1],"loss_changes":[1.4996079E10,3.559932E9,1.8091213E9,4.1833267E8,2.4142643E8,1.3978829E8,3.9511654E8,1.2116378E8,5.8781696E7,2.286592E7,1.0013082E8,1.0223616E7,3.8395904E7,4.3474944E7,6.0432384E7,3.779776E6,2.562048E7,1.3330432E7,7.025664E6,2.35008E7,8.102656E6,1.9636224E7,4.0505344E7,3.059712E6,7.276544E6,4.3761664E7,1.3856768E7,2.998272E6,1.0461184E7,0E0,5.267456E6,0E0,5.8176E5,5.896704E6,1.9357696E7,1.0022912E7,0E0,3.985408E6,1.25296E7,1.94048E6,1.2100608E7,0E0,9.72768E6,2.973696E6,1.1272192E7,1.60768E7,6.42432E5,1.007616E6,0E0,1.75104E5,8.339456E6,4.88448E6,2.6927104E7,2.97984E5,3.190784E6,0E0,2.420736E6,0E0,1.92512E5,5.02784E5,2.809856E6,0E0,0E0,0E0,0E0,0E0,0E0,0E0,0E0,0E0,0E0,0E0,0E0,0E0,0E0,0E0,0E0,0E0,0E0,0E0,0E0,0E0,0E0,0E0,0E0,0E0,0E0,0E0,0E0,0E0,0E0,0E0,0E0,0E0,0E0,0E0,0E0,0E0,0E0,0E0,0E0,0E0,0E0,0E0,0E0,0E0,0E0,0E0,0E0],"parents":[2147483647,0,0,1,1,2,2,3,3,4,4,5,5,6,6,7,7,8,8,9,9,10,10,11,11,12,12,13,13,14,14,15,15,16,16,17,17,18,18,19,19,20,20,21,21,22,22,23,23,24,24,25,25,26,26,27,27,28,28,30,30,32,32,33,33,34,34,35,35,37,37,38,38,39,39,40,40,42,42,43,43,44,44,45,45,46,46,47,47,49,49,50,50,51,51,52,52,53,53,54,54,56,56,58,58,59,59,60,60],"right_children":[2,4,6,8,10,12,14,16,18,20,22,24,26,28,30,32,34,36,38,40,42,44,46,48,50,52,54,56,58,-1,60,-1,62,64,66,68,-1,70,72,74,76,-1,78,80,82,84,86,88,-1,90,92,94,96,98,100,-1,102,-1,104,106,108,-1,-1,-1,-1,-1,-1,-1,-1,-1,-1,-1,-1,-1,-1,-1,-1,-1,-1,-1,-1,-1,-1,-1,-1,-1,-1,-1,-1,-1,-1,-1,-1,-1,-1,-1,-1,-1,-1,-1,-1,-1,-1,-1,-1,-1,-1,-1,-1],"split_conditions":[5.00026E-1,4.3460706E-1,3.9123573E1,3.8591194E-1,4.5666414E-1,5.235652E-1,4.1960236E1,3.108172E-1,4.0993008E-1,3.4926014E1,3.507263E1,2E1,3.7992805E1,4.003293E1,4.2989113E1,2.4222079E-1,2.8258564E1,3.528042E1,3.414044E1,4.4785082E-1,4.188835E-1,7.355E1,3.9371788E1,3.8476048E1,7.355E1,4.4449997E1,5.3E1,7.355E1,5.8815354E-1,8.111196E1,5.663373E-1,2.2265312E1,2.6077934E1,3.5424978E-1,3.5265114E1,4.004441E-1,6.2950294E1,3.4057877E1,4.262571E-1,2.9314283E1,4.0988505E-1,6.786924E1,2.9E1,4.7895935E-1,4.741524E-1,3.6028908E1,4.929049E-1,7.355E1,7.2960526E1,3.5245884E1,3.5500755E1,6.111958E-1,3.498423E1,4.4538933E-1,3.15E-1,7.674062E1,4.799865E-1,7.698835E1,2E1,5.1069736E-1,4.5196976E1,2.651975E1,2.9246017E1,3.4445892E1,4.0540855E1,4.0080933E1,5.5248566E1,4.3922424E1,4.6200165E1,4.882411E1,2.4792374E1,6.5625374E1,4.8690014E1,4.0452374E1,5.206502E1,5.788428E1,5.404206E1,6.1483025E1,4.265581E1,5.940188E1,6.1322777E1,5.676582E1,5.8870113E1,6.143257E1,6.457369E1,7.397731E1,8.512298E1,6.826711E1,6.6730644E1,6.475959E1,6.831444E1,5.991071E1,6.50754E1,7.1771835E1,8.1408806E1,6.1533913E1,6.868285E1,7.053669E1,7.6503426E1,6.651314E1,7.188001E1,7.3543045E1,7.537665E1,7.9477875E1,7.740934E1,8.1936066E1,6.834378E1,8.589843E1,8.90964E1],"split_indices":[13,13,15,13,13,13,15,13,13,15,15,11,15,15,15,13,15,15,15,13,14,5,15,15,5,6,8,5,13,0,13,0,15,13,15,13,0,15,13,15,14,0,11,13,13,15,13,5,0,15,15,13,15,14,4,0,14,0,11,14,15,0,0,0,0,0,0,0,0,0,0,0,0,0,0,0,0,0,0,0,0,0,0,0,0,0,0,0,0,0,0,0,0,0,0,0,0,0,0,0,0,0,0,0,0,0,0,0,0],"split_type":[0,0,0,0,0,0,0,0,0,0,0,0,0,0,0,0,0,0,0,0,0,0,0,0,0,0,0,0,0,0,0,0,0,0,0,0,0,0,0,0,0,0,0,0,0,0,0,0,0,0,0,0,0,0,0,0,0,0,0,0,0,0,0,0,0,0,0,0,0,0,0,0,0,0,0,0,0,0,0,0,0,0,0,0,0,0,0,0,0,0,0,0,0,0,0,0,0,0,0,0,0,0,0,0,0,0,0,0,0],"sum_hessian":[1.5289E4,7.217E3,8.072E3,2.825E3,4.392E3,4.247E3,3.825E3,1.095E3,1.73E3,9.79E2,3.413E3,1.611E3,2.636E3,2.598E3,1.227E3,1.15E2,9.8E2,1.001E3,7.29E2,9.41E2,3.8E1,2.08E3,1.333E3,9.83E2,6.28E2,1.698E3,9.38E2,9.63E2,1.635E3,5.08E2,7.19E2,1.3E1,1.02E2,1.51E2,8.29E2,9.96E2,5E0,7.05E2,2.4E1,4.83E2,4.58E2,1.9E1,1.9E1,7.18E2,1.362E3,1.31E3,2.3E1,9.63E2,2E1,1.61E2,4.67E2,5.81E2,1.117E3,1.28E2,8.1E2,1.65E2,7.98E2,1.003E3,6.32E2,4.3E1,6.76E2,2.1E1,8.1E1,1.27E2,2.4E1,8.19E2,1E1,5.64E2,4.32E2,7.04E2,1E0,9E0,1.5E1,3E0,4.8E2,1.7E2,2.88E2,1.4E1,5E0,4.76E2,2.42E2,7.12E2,6.5E2,1.046E3,2.64E2,1.8E1,5E0,2.49E2,7.14E2,3.5E1,1.26E2,5.2E1,4.15E2,5.71E2,1E1,7E1,1.047E3,1.4E1,1.14E2,2.6E1,7.84E2,4.2E2,3.78E2,4.91E2,1.41E2,4E1,3E0,5.79E2,9.7E1],"tree_param":{"num_deleted":"0","num_feature":"16","num_nodes":"109","size_leaf_vector":"0"}},{"base_weights":[5.9608545E3,4.9287773E3,6.8913403E3,4.0577456E3,5.484911E3,6.4466416E3,7.381495E3,3.6071265E3,4.3803447E3,5.046685E3,5.6093384E3,6.2169277E3,6.5841577E3,7.161674E3,7.846311E3,2.614059E3,3.7142766E3,4.2236494E3,4.5770156E3,5.0146763E3,5.8283857E3,5.4691772E3,5.8236577E3,6.2851377E3,6.1083164E3,6.4916367E3,6.7511333E3,6.9876367E3,7.263932E3,7.575063E3,8.0371836E3,2.0794812E3,2.6806833E3,3.3613103E3,3.789746E3,4.2165864E3,5.73324E3,4.556746E3,5.1570835E3,4.8561953E3,5.1810225E3,6.3385674E3,5.296301E3,5.608587E3,5.39561E3,5.7993706E3,7.155359E3,6.2689404E3,6.6689927E3,6.3148706E3,6.0348296E3,6.719221E3,6.3728364E3,7.087515E3,6.697354E3,7.1668457E3,6.949942E3,7.1900825E3,7.3801875E3,7.57447E3,8.0658105E3,2.4767712E3,2.7313132E3,6.0196396E3,3.3304185E3,3.770372E3,5.278976E3,4.134967E3,4.3233286E3,4.5596914E3,2.3170193E3,6.1292764E3,4.547395E3,3.7787935E3,4.862364E3,5.4058413E3,5.0470054E3,5.742217E3,3.984232E3,5.5475547E3,5.726956E3,5.3013696E3,5.497616E3,5.739294E3,6.033023E3,6.3702886E3,6.2326323E3,6.048034E3,6.38665E3,5.26219E3,6.0604243E3,6.702785E3,7.6033525E3,5.746719E3,6.414301E3,6.587785E3,7.144708E3,6.211849E3,6.7128857E3,6.8682017E3,7.039445E3,7.4224556E3,7.229303E3,7.6521606E3,6.384225E3,8.0220703E3,8.320783E3],"categories":[],"categories_nodes":[],"categories_segments":[],"categories_sizes":[],"default_left":[1,1,1,1,1,1,1,1,1,1,1,1,1,1,1,1,1,1,1,1,1,1,1,1,1,1,1,1,1,0,1,0,1,1,1,1,0,1,1,1,1,0,1,1,1,1,0,1,0,1,1,1,1,1,1,0,1,0,1,1,1,0,0,0,0,0,0,0,0,0,0,0,0,0,0,0,0,0,0,0,0,0,0,0,0,0,0,0,0,0,0,0,0,0,0,0,0,0,0,0,0,0,0,0,0,0,0],"id":1,"left_children":[1,3,5,7,9,11,13,15,17,19,21,23,25,27,29,31,33,35,37,39,41,43,45,47,49,51,53,55,57,-1,59,-1,61,63,65,67,-1,69,71,73,75,-1,77,79,81,83,-1,85,-1,87,89,91,93,95,97,-1,99,-1,101,103,105,-1,-1,-1,-1,-1,-1,-1,-1,-1,-1,-1,-1,-1,-1,-1,-1,-1,-1,-1,-1,-1,-1,-1,-1,-1,-1,-1,-1,-1,-1,-1,-1,-1,-1,-1,-1,-1,-1,-1,-1,-1,-1,-1,-1,-1,-1],"loss_changes":[1.468013E10,3.5099116E9,1.7490575E9,4.0954675E8,2.392146E8,1.302528E8,3.8669517E8,1.2476518E8,4.934656E7,2.2401024E7,1.0120397E8,8.953856E6,3.7584896E7,4.259021E7,5.9170816E7,3.698752E6,2.7431936E7,8.044544E6,6.888448E6,2.3003136E7,7.928832E6,1.921024E7,4.105011E7,3.026944E6,6.557696E6,4.285235E7,1.3565952E7,2.936832E6,1.0231808E7,0E0,5.14048E6,0E0,5.6896E5,1.400768E7,2.384896E7,6.673408E6,0E0,3.893248E6,1.22704E7,1.893376E6,1.1846656E7,0E0,9.518592E6,2.910208E6,1.1042816E7,1.6285696E7,0E0,5.7344E5,0E0,2.78528E5,6.674432E6,4.790272E6,2.635776E7,2.8672E5,3.121152E6,0E0,2.37568E6,0E0,1.8432E5,4.81536E5,2.756608E6,0E0,0E0,0E0,0E0,0E0,0E0,0E0,0E0,0E0,0E0,0E0,0E0,0E0,0E0,0E0,0E0,0E0,0E0,0E0,0E0,0E0,0E0,0E0,0E0,0E0,0E0,0E0,0E0,0E0,0E0,0E0,0E0,0E0,0E0,0E0,0E0,0E0,0E0,0E0,0E0,0E0,0E0,0E0,0E0,0E0,0E0],"parents":[2147483647,0,0,1,1,2,2,3,3,4,4,5,5,6,6,7,7,8,8,9,9,10,10,11,11,12,12,13,13,14,14,15,15,16,16,17,17,18,18,19,19,20,20,21,21,22,22,23,23,24,24,25,25,26,26,27,27,28,28,30,30,32,32,33,33,34,34,35,35,37,37,38,38,39,39,40,40,42,42,43,43,44,44,45,45,47,47,49,49,50,50,51,51,52,52,53,53,54,54,56,56,58,58,59,59,60,60],"right_children":[2,4,6,8,10,12,14,16,18,20,22,24,26,28,30,32,34,36,38,40,42,44,46,48,50,52,54,56,58,-1,60,-1,62,64,66,68,-1,70,72,74,76,-1,78,80,82,84,-1,86,-1,88,90,92,94,96,98,-1,100,-1,102,104,106,-1,-1,-1,-1,-1,-1,-1,-1,-1,-1,-1,-1,-1,-1,-1,-1,-1,-1,-1,-1,-1,-1,-1,-1,-1,-1,-1,-1,-1,-1,-1,-1,-1,-1,-1,-1,-1,-1,-1,-1,-1,-1,-1,-1,-1,-1],"split_conditions":[5.001868E-1,4.3460706E-1,3.9123573E1,3.8840875E-1,4.5666414E-1,5.235652E-1,4.1960236E1,3.108172E-1,4.0993008E-1,3.4926014E1,3.507263E1,2E1,3.7992805E1,4.003293E1,4.2989113E1,2.4222079E-1,2.8290379E1,3.528042E1,3.414044E1,4.4785082E-1,4.188835E-1,7.355E1,3.9371788E1,3.7963993E1,7.355E1,4.4449997E1,5.3E1,7.355E1,5.8815354E-1,8.0252754E1,5.663373E-1,2.2030722E1,2.6077934E1,1.25E-1,3.5265114E1,4.018612E-1,6.073987E1,3.4057877E1,4.262571E-1,2.9314283E1,4.0988505E-1,6.715291E1,2.9E1,4.7895935E-1,4.741524E-1,3.6028908E1,7.5806274E1,7.355E1,7.065354E1,3.5245884E1,3.4073784E1,6.111958E-1,3.498423E1,4.4538933E-1,3.15E-1,7.592796E1,4.799865E-1,7.617415E1,2E1,5.1069736E-1,4.5196976E1,2.6239746E1,2.893645E1,6.3774082E1,3.528357E1,3.9944588E1,5.5927242E1,4.3807224E1,4.580279E1,4.83069E1,2.454728E1,6.493561E1,4.817663E1,4.0033806E1,5.151351E1,5.7271297E1,5.346967E1,6.0834972E1,4.221029E1,5.8772655E1,6.0673294E1,5.616449E1,5.824359E1,6.0804005E1,6.3915867E1,6.7488976E1,6.6030594E1,6.4074905E1,6.766231E1,5.5749405E1,6.420617E1,7.101155E1,8.055247E1,6.088267E1,6.795525E1,6.9793205E1,7.5693436E1,6.581041E1,7.111856E1,7.276403E1,7.457824E1,7.863599E1,7.658966E1,8.106956E1,6.763662E1,8.49885E1,8.815317E1],"split_indices":[13,13,15,13,13,13,15,13,13,15,15,11,15,15,15,13,15,15,15,13,14,5,15,15,5,6,8,5,13,0,13,0,15,1,15,13,0,15,13,15,14,0,11,13,13,15,0,5,0,15,15,13,15,14,4,0,14,0,11,14,15,0,0,0,0,0,0,0,0,0,0,0,0,0,0,0,0,0,0,0,0,0,0,0,0,0,0,0,0,0,0,0,0,0,0,0,0,0,0,0,0,0,0,0,0,0,0],"split_type":[0,0,0,0,0,0,0,0,0,0,0,0,0,0,0,0,0,0,0,0,0,0,0,0,0,0,0,0,0,0,0,0,0,0,0,0,0,0,0,0,0,0,0,0,0,0,0,0,0,0,0,0,0,0,0,0,0,0,0,0,0,0,0,0,0,0,0,0,0,0,0,0,0,0,0,0,0,0,0,0,0,0,0,0,0,0,0,0,0,0,0,0,0,0,0,0,0,0,0,0,0,0,0,0,0,0,0],"sum_hessian":[1.5289E4,7.249E3,8.04E3,2.825E3,4.424E3,4.216E3,3.824E3,1.179E3,1.646E3,9.79E2,3.445E3,1.58E3,2.636E3,2.597E3,1.227E3,1.15E2,1.064E3,9.17E2,7.29E2,9.41E2,3.8E1,2.084E3,1.361E3,9.68E2,6.12E2,1.698E3,9.38E2,9.63E2,1.634E3,5.08E2,7.19E2,1.3E1,1.02E2,1.88E2,8.76E2,9.13E2,4E0,7.05E2,2.4E1,4.83E2,4.58E2,1.9E1,1.9E1,7.18E2,1.366E3,1.337E3,2.4E1,9.3E2,3.8E1,1.59E2,4.53E2,5.81E2,1.117E3,1.28E2,8.1E2,1.65E2,7.98E2,1.002E3,6.32E2,4.3E1,6.76E2,2.1E1,8.1E1,2E0,1.86E2,8.65E2,1.1E1,5.19E2,3.94E2,7.04E2,1E0,9E0,1.5E1,3E0,4.8E2,1.7E2,2.88E2,1.4E1,5E0,4.76E2,2.42E2,7.12E2,6.54E2,1.065E3,2.72E2,2.42E2,6.88E2,3.5E1,1.24E2,1.5E1,4.38E2,5.71E2,1E1,7E1,1.047E3,1.4E1,1.14E2,2.6E1,7.84E2,4.2E2,3.78E2,4.91E2,1.41E2,4E1,3E0,5.79E2,9.7E1],"tree_param":{"num_deleted":"0","num_feature":"16","num_nodes":"107","size_leaf_vector":"0"}},{"base_weights":[5.8977183E3,4.876574E3,6.8183477E3,4.014772E3,5.426815E3,6.378361E3,7.303309E3,3.540347E3,4.3148994E3,4.993246E3,5.5499204E3,6.151084E3,6.514418E3,7.085813E3,7.763208E3,2.5864128E3,3.6520908E3,4.158995E3,4.5285435E3,4.9615645E3,5.766958E3,5.411243E3,5.76197E3,6.218566E3,6.043632E3,6.4228735E3,6.679631E3,6.9136235E3,7.1869854E3,7.4948213E3,7.9520674E3,2.057571E3,2.6523223E3,3.3172458E3,3.7297046E3,4.150234E3,5.8208896E3,4.508478E3,5.1027847E3,4.8047603E3,5.1261504E3,6.271667E3,5.240577E3,5.5491797E3,5.338453E3,5.7379365E3,7.0797783E3,6.2025356E3,6.5984717E3,6.2480283E3,5.970913E3,6.6480547E3,6.3053286E3,7.0125093E3,6.626412E3,7.0909507E3,6.8763247E3,7.1139136E3,7.302017E3,7.494471E3,7.9803774E3,2.4506208E3,2.7024026E3,5.958072E3,3.2860632E3,3.7117266E3,5.104531E3,4.0587148E3,4.2690244E3,4.5113896E3,2.294114E3,6.0648535E3,4.4994473E3,3.7396938E3,4.810858E3,5.3485938E3,4.993549E3,5.681692E3,3.942618E3,5.5453506E3,7.7402314E3,5.245211E3,5.439379E3,5.678494E3,5.969124E3,6.8335337E3,7.7291274E3,6.30282E3,6.1666084E3,5.9840903E3,6.3190273E3,5.2067056E3,5.9962285E3,6.6317827E3,7.523373E3,5.685899E3,6.34635E3,6.518347E3,7.069062E3,6.1462197E3,6.641774E3,6.79545E3,6.9648804E3,7.343831E3,7.152752E3,7.571236E3,6.3181665E3,7.937093E3,8.232695E3],"categories":[],"categories_nodes":[],"categories_segments":[],"categories_sizes":[],"default_left":[1,1,1,1,1,1,1,1,1,1,1,1,1,1,1,1,1,1,1,1,1,1,1,1,1,1,1,1,1,0,1,0,1,1,1,1,0,1,1,1,1,0,1,1,1,1,1,1,0,1,1,1,1,1,1,0,1,0,1,1,1,0,0,0,0,0,0,0,0,0,0,0,0,0,0,0,0,0,0,0,0,0,0,0,0,0,0,0,0,0,0,0,0,0,0,0,0,0,0,0,0,0,0,0,0,0,0,0,0],"id":2,"left_children":[1,3,5,7,9,11,13,15,17,19,21,23,25,27,29,31,33,35,37,39,41,43,45,47,49,51,53,55,57,-1,59,-1,61,63,65,67,-1,69,71,73,75,-1,77,79,81,83,85,87,-1,89,91,93,95,97,99,-1,101,-1,103,105,107,-1,-1,-1,-1,-1,-1,-1,-1,-1,-1,-1,-1,-1,-1,-1,-1,-1,-1,-1,-1,-1,-1,-1,-1,-1,-1,-1,-1,-1,-1,-1,-1,-1,-1,-1,-1,-1,-1,-1,-1,-1,-1,-1,-1,-1,-1,-1,-1],"loss_changes":[1.4370767E10,3.4359378E9,1.7122263E9,4.0116224E8,2.3415194E8,1.2750029E8,3.785687E8,1.1605197E8,5.6274944E7,2.1946368E7,9.908224E7,8.761344E6,3.6798464E7,4.1680896E7,5.792563E7,3.619712E6,2.4585216E7,1.2845056E7,6.75328E6,2.2521856E7,7.758976E6,1.8804736E7,4.019405E7,2.965504E6,6.424576E6,4.193485E7,1.3287424E7,2.875392E6,1.0018816E7,0E0,5.029888E6,0E0,5.5648E5,1.3837184E7,1.8292736E7,9.587712E6,0E0,3.803136E6,1.2016576E7,1.847296E6,1.15968E7,0E0,9.313952E6,2.947072E6,1.0809344E7,1.5945728E7,6.3488E4,5.65248E5,0E0,2.70336E5,6.525952E6,4.702208E6,2.5800704E7,2.75968E5,3.047424E6,0E0,2.322432E6,0E0,1.80224E5,4.608E5,2.699264E6,0E0,0E0,0E0,0E0,0E0,0E0,0E0,0E0,0E0,0E0,0E0,0E0,0E0,0E0,0E0,0E0,0E0,0E0,0E0,0E0,0E0,0E0,0E0,0E0,0E0,0E0,0E0,0E0,0E0,0E0,0E0,0E0,0E0,0E0,0E0,0E0,0E0,0E0,0E0,0E0,0E0,0E0,0E0,0E0,0E0,0E0,0E0,0E0],"parents":[2147483647,0,0,1,1,2,2,3,3,4,4,5,5,6,6,7,7,8,8,9,9,10,10,11,11,12,12,13,13,14,14,15,15,16,16,17,17,18,18,19,19,20,20,21,21,22,22,23,23,24,24,25,25,26,26,27,27,28,28,30,30,32,32,33,33,34,34,35,35,37,37,38,38,39,39,40,40,42,42,43,43,44,44,45,45,46,46,47,47,49,49,50,50,51,51,52,52,53,53,54,54,56,56,58,58,59,59,60,60],"right_children":[2,4,6,8,10,12,14,16,18,20,22,24,26,28,30,32,34,36,38,40,42,44,46,48,50,52,54,56,58,-1,60,-1,62,64,66,68,-1,70,72,74,76,-1,78,80,82,84,86,88,-1,90,92,94,96,98,100,-1,102,-1,104,106,108,-1,-1,-1,-1,-1,-1,-1,-1,-1,-1,-1,-1,-1,-1,-1,-1,-1,-1,-1,-1,-1,-1,-1,-1,-1,-1,-1,-1,-1,-1,-1,-1,-1,-1,-1,-1,-1,-1,-1,-1,-1,-1,-1,-1,-1,-1,-1,-1],"split_conditions":[5.001868E-1,4.3460706E-1,3.9123573E1,3.8591194E-1,4.5666414E-1,5.235652E-1,4.1960236E1,3.108172E-1,4.0993008E-1,3.4926014E1,3.507263E1,2E1,3.7992805E1,4.003293E1,4.2989113E1,2.4222079E-1,2.8290379E1,3.528042E1,3.414044E1,4.4785082E-1,4.188835E-1,7.355E1,3.9371788E1,3.7963993E1,7.355E1,4.4449997E1,5.3E1,7.355E1,5.8815354E-1,7.940265E1,5.663373E-1,2.1798597E1,2.6077934E1,1.25E-1,3.5265114E1,4.004441E-1,6.1668457E1,3.4057877E1,4.262571E-1,2.9314283E1,4.0988505E-1,6.6444145E1,2.9E1,4.656734E-1,4.741524E-1,3.6028908E1,4.929049E-1,7.355E1,6.9906425E1,3.5245884E1,3.4073784E1,6.111958E-1,3.498423E1,4.4538933E-1,3.15E-1,7.512391E1,4.799865E-1,7.536719E1,2E1,5.1069736E-1,4.5196976E1,2.59627E1,2.863016E1,6.312181E1,3.4813656E1,3.9323277E1,5.407911E1,4.2999386E1,4.5227478E1,4.7795174E1,2.4304613E1,6.425309E1,4.766865E1,3.961957E1,5.0967842E1,5.6664795E1,5.290333E1,6.019375E1,4.1769417E1,5.8749306E1,8.200261E1,5.5569523E1,5.7626606E1,6.015987E1,6.3238903E1,7.239675E1,8.188497E1,6.6774185E1,6.5331116E1,6.339746E1,6.694589E1,5.5161587E1,6.3526054E1,7.025933E1,7.970514E1,6.023832E1,6.723536E1,6.9057556E1,7.489201E1,6.511511E1,7.036518E1,7.199328E1,7.378828E1,7.780301E1,7.5778656E1,8.021221E1,6.6936775E1,8.408823E1,8.721993E1],"split_indices":[13,13,15,13,13,13,15,13,13,15,15,11,15,15,15,13,15,15,15,13,14,5,15,15,5,6,8,5,13,0,13,0,15,1,15,13,0,15,13,15,14,0,11,14,13,15,13,5,0,15,15,13,15,14,4,0,14,0,11,14,15,0,0,0,0,0,0,0,0,0,0,0,0,0,0,0,0,0,0,0,0,0,0,0,0,0,0,0,0,0,0,0,0,0,0,0,0,0,0,0,0,0,0,0,0,0,0,0,0],"split_type":[0,0,0,0,0,0,0,0,0,0,0,0,0,0,0,0,0,0,0,0,0,0,0,0,0,0,0,0,0,0,0,0,0,0,0,0,0,0,0,0,0,0,0,0,0,0,0,0,0,0,0,0,0,0,0,0,0,0,0,0,0,0,0,0,0,0,0,0,0,0,0,0,0,0,0,0,0,0,0,0,0,0,0,0,0,0,0,0,0,0,0,0,0,0,0,0,0,0,0,0,0,0,0,0,0,0,0,0,0],"sum_hessian":[1.5289E4,7.249E3,8.04E3,2.825E3,4.424E3,4.216E3,3.824E3,1.095E3,1.73E3,9.79E2,3.445E3,1.58E3,2.636E3,2.597E3,1.227E3,1.15E2,9.8E2,1.001E3,7.29E2,9.41E2,3.8E1,2.084E3,1.361E3,9.68E2,6.12E2,1.698E3,9.38E2,9.63E2,1.634E3,5.08E2,7.19E2,1.3E1,1.02E2,1.85E2,7.95E2,9.96E2,5E0,7.05E2,2.4E1,4.83E2,4.58E2,1.9E1,1.9E1,7.18E2,1.366E3,1.337E3,2.4E1,9.3E2,3.8E1,1.59E2,4.53E2,5.81E2,1.117E3,1.28E2,8.1E2,1.65E2,7.98E2,1.002E3,6.32E2,4.3E1,6.76E2,2.1E1,8.1E1,2E0,1.83E2,7.85E2,1E1,5.64E2,4.32E2,7.04E2,1E0,9E0,1.5E1,3E0,4.8E2,1.7E2,2.88E2,1.4E1,5E0,7.17E2,1E0,7.12E2,6.54E2,1.065E3,2.72E2,1.8E1,6E0,2.42E2,6.88E2,3.5E1,1.24E2,1.5E1,4.38E2,5.71E2,1E1,7E1,1.047E3,1.4E1,1.14E2,2.6E1,7.84E2,4.2E2,3.78E2,4.91E2,1.41E2,4E1,3E0,5.79E2,9.7E1],"tree_param":{"num_deleted":"0","num_feature":"16","num_nodes":"109","size_leaf_vector":"0"}},{"base_weights":[5.835252E3,4.8206724E3,6.7423145E3,3.9722534E3,5.366314E3,6.306696E3,7.225866E3,3.5028567E3,4.2691997E3,4.940373E3,5.4883867E3,6.0794355E3,6.445417E3,7.010714E3,7.680985E3,2.559059E3,3.6134133E3,4.114944E3,4.4805845E3,4.9090156E3,5.7061777E3,5.353955E3,5.697853E3,6.14886E3,5.9700776E3,6.3548394E3,6.608886E3,6.840395E3,7.1107266E3,7.4154297E3,7.867852E3,2.0358921E3,2.624261E3,3.2387234E3,3.6813762E3,4.1062715E3,5.7600923E3,4.460721E3,5.049057E3,4.7538706E3,5.0718594E3,6.205472E3,5.1854395E3,5.490404E3,5.2817393E3,5.6744385E3,7.0097153E3,6.137458E3,6.67399E3,6.1776724E3,5.897572E3,6.577641E3,6.238536E3,6.938297E3,6.5562217E3,7.0158594E3,6.803488E3,7.0384155E3,7.2246743E3,7.4153174E3,7.895848E3,2.4247463E3,2.6737976E3,3.146419E3,3.7163452E3,3.6642146E3,5.0508364E3,4.015721E3,4.223804E3,4.463599E3,2.2714346E3,6.0011084E3,4.452006E3,3.7009985E3,4.7598975E3,5.291953E3,4.9406587E3,5.6218047E3,3.9014387E3,5.486607E3,7.663714E3,5.1896465E3,5.382033E3,5.61624E3,5.9034385E3,6.7614243E3,7.7953804E3,6.2414814E3,6.100558E3,5.9208223E3,6.2456133E3,5.47351E3,5.949753E3,6.5615317E3,7.4442354E3,5.625722E3,6.279119E3,6.4496416E3,6.9942173E3,6.0812837E3,6.571415E3,6.723469E3,6.891106E3,7.266039E3,7.0770117E3,7.4911675E3,6.2527915E3,7.8530146E3,8.1455396E3],"categories":[],"categories_nodes":[],"categories_segments":[],"categories_sizes":[],"default_left":[1,1,1,1,1,1,1,1,1,1,1,1,1,1,1,1,1,1,1,1,1,1,1,1,1,1,1,1,1,0,1,0,1,1,1,1,0,1,1,1,1,0,1,1,1,1,1,1,0,1,1,1,1,1,1,0,1,0,1,1,1,0,0,0,0,0,0,0,0,0,0,0,0,0,0,0,0,0,0,0,0,0,0,0,0,0,0,0,0,0,0,0,0,0,0,0,0,0,0,0,0,0,0,0,0,0,0,0,0],"id":3,"left_children":[1,3,5,7,9,11,13,15,17,19,21,23,25,27,29,31,33,35,37,39,41,43,45,47,49,51,53,55,57,-1,59,-1,61,63,65,67,-1,69,71,73,75,-1,77,79,81,83,85,87,-1,89,91,93,95,97,99,-1,101,-1,103,105,107,-1,-1,-1,-1,-1,-1,-1,-1,-1,-1,-1,-1,-1,-1,-1,-1,-1,-1,-1,-1,-1,-1,-1,-1,-1,-1,-1,-1,-1,-1,-1,-1,-1,-1,-1,-1,-1,-1,-1,-1,-1,-1,-1,-1,-1,-1,-1,-1],"loss_changes":[1.4068023E10,3.3394852E9,1.6970875E9,3.926999E8,2.2641869E8,1.3108838E8,3.70688E8,1.1359949E8,5.509325E7,2.1504E7,9.392947E7,9.60512E6,3.6028416E7,4.0771584E7,5.6713216E7,3.542336E6,2.4103936E7,1.2587008E7,6.618112E6,2.2048768E7,7.592448E6,1.8419712E7,3.810099E7,2.94912E6,6.84032E6,4.10624E7,1.3012992E7,2.813952E6,9.8304E6,0E0,4.9152E6,0E0,5.44192E5,5.822208E6,1.8159616E7,9.38496E6,0E0,3.716096E6,1.1768064E7,1.80224E6,1.1353088E7,0E0,9.113728E6,2.912256E6,1.0579968E7,1.5081472E7,7.23072E5,9.6256E5,0E0,1.60768E5,8.001536E6,4.610048E6,2.525184E7,2.6624E5,2.981888E6,0E0,2.269184E6,0E0,1.7408E5,4.40832E5,2.646016E6,0E0,0E0,0E0,0E0,0E0,0E0,0E0,0E0,0E0,0E0,0E0,0E0,0E0,0E0,0E0,0E0,0E0,0E0,0E0,0E0,0E0,0E0,0E0,0E0,0E0,0E0,0E0,0E0,0E0,0E0,0E0,0E0,0E0,0E0,0E0,0E0,0E0,0E0,0E0,0E0,0E0,0E0,0E0,0E0,0E0,0E0,0E0,0E0],"parents":[2147483647,0,0,1,1,2,2,3,3,4,4,5,5,6,6,7,7,8,8,9,9,10,10,11,11,12,12,13,13,14,14,15,15,16,16,17,17,18,18,19,19,20,20,21,21,22,22,23,23,24,24,25,25,26,26,27,27,28,28,30,30,32,32,33,33,34,34,35,35,37,37,38,38,39,39,40,40,42,42,43,43,44,44,45,45,46,46,47,47,49,49,50,50,51,51,52,52,53,53,54,54,56,56,58,58,59,59,60,60],"right_children":[2,4,6,8,10,12,14,16,18,20,22,24,26,28,30,32,34,36,38,40,42,44,46,48,50,52,54,56,58,-1,60,-1,62,64,66,68,-1,70,72,74,76,-1,78,80,82,84,86,88,-1,90,92,94,96,98,100,-1,102,-1,104,106,108,-1,-1,-1,-1,-1,-1,-1,-1,-1,-1,-1,-1,-1,-1,-1,-1,-1,-1,-1,-1,-1,-1,-1,-1,-1,-1,-1,-1,-1,-1,-1,-1,-1,-1,-1,-1,-1,-1,-1,-1,-1,-1,-1,-1,-1,-1,-1,-1],"split_conditions":[5.00026E-1,4.3460706E-1,3.9123573E1,3.8591194E-1,4.5666414E-1,5.235652E-1,4.1960236E1,3.108172E-1,4.0993008E-1,3.4926014E1,3.507263E1,2E1,3.7992805E1,4.003293E1,4.2989113E1,2.4222079E-1,2.8258564E1,3.528042E1,3.414044E1,4.4785082E-1,4.188835E-1,7.355E1,3.9371788E1,3.8476048E1,7.355E1,4.4449997E1,5.3E1,7.355E1,5.8815354E-1,7.856155E1,5.663373E-1,2.1568924E1,2.6077934E1,3.5424978E-1,3.5265114E1,4.004441E-1,6.102435E1,3.4057877E1,4.262571E-1,2.9314283E1,4.0988505E-1,6.574285E1,2.9E1,4.656734E-1,4.741524E-1,3.6028908E1,4.929049E-1,7.355E1,7.070649E1,3.5245884E1,3.5500755E1,6.111958E-1,3.498423E1,4.4538933E-1,3.15E-1,7.432837E1,4.799865E-1,7.456734E1,2E1,5.1069736E-1,4.5196976E1,2.5688576E1,2.8327108E1,3.3334217E1,3.9372208E1,3.881992E1,5.3510254E1,4.2543896E1,4.4748398E1,4.7288868E1,2.406434E1,6.3577755E1,4.7166042E1,3.920962E1,5.042795E1,5.6064728E1,5.2342995E1,5.9559284E1,4.133315E1,5.8126953E1,8.1191956E1,5.4980854E1,5.7019066E1,5.950033E1,6.2543007E1,7.16328E1,8.2586876E1,6.612435E1,6.4631355E1,6.2727177E1,6.616812E1,5.7988197E1,6.3033676E1,6.951507E1,7.886673E1,5.960079E1,6.6523094E1,6.8329666E1,7.409908E1,6.442716E1,6.9619774E1,7.123069E1,7.300669E1,7.697885E1,7.4976234E1,7.936394E1,6.624417E1,8.319747E1,8.629658E1],"split_indices":[13,13,15,13,13,13,15,13,13,15,15,11,15,15,15,13,15,15,15,13,14,5,15,15,5,6,8,5,13,0,13,0,15,13,15,13,0,15,13,15,14,0,11,14,13,15,13,5,0,15,15,13,15,14,4,0,14,0,11,14,15,0,0,0,0,0,0,0,0,0,0,0,0,0,0,0,0,0,0,0,0,0,0,0,0,0,0,0,0,0,0,0,0,0,0,0,0,0,0,0,0,0,0,0,0,0,0,0,0],"split_type":[0,0,0,0,0,0,0,0,0,0,0,0,0,0,0,0,0,0,0,0,0,0,0,0,0,0,0,0,0,0,0,0,0,0,0,0,0,0,0,0,0,0,0,0,0,0,0,0,0,0,0,0,0,0,0,0,0,0,0,0,0,0,0,0,0,0,0,0,0,0,0,0,0,0,0,0,0,0,0,0,0,0,0,0,0,0,0,0,0,0,0,0,0,0,0,0,0,0,0,0,0,0,0,0,0,0,0,0,0],"sum_hessian":[1.5289E4,7.217E3,8.072E3,2.825E3,4.392E3,4.247E3,3.825E3,1.095E3,1.73E3,9.79E2,3.413E3,1.611E3,2.636E3,2.598E3,1.227E3,1.15E2,9.8E2,1.001E3,7.29E2,9.41E2,3.8E1,2.08E3,1.333E3,9.83E2,6.28E2,1.698E3,9.38E2,9.63E2,1.635E3,5.08E2,7.19E2,1.3E1,1.02E2,1.51E2,8.29E2,9.96E2,5E0,7.05E2,2.4E1,4.83E2,4.58E2,1.9E1,1.9E1,7.18E2,1.362E3,1.31E3,2.3E1,9.63E2,2E1,1.61E2,4.67E2,5.81E2,1.117E3,1.28E2,8.1E2,1.65E2,7.98E2,1.003E3,6.32E2,4.3E1,6.76E2,2.1E1,8.1E1,1.27E2,2.4E1,8.19E2,1E1,5.64E2,4.32E2,7.04E2,1E0,9E0,1.5E1,3E0,4.8E2,1.7E2,2.88E2,1.4E1,5E0,7.17E2,1E0,7.12E2,6.5E2,1.046E3,2.64E2,1.8E1,5E0,2.49E2,7.14E2,3.5E1,1.26E2,5.2E1,4.15E2,5.71E2,1E1,7E1,1.047E3,1.4E1,1.14E2,2.6E1,7.84E2,4.2E2,3.78E2,4.91E2,1.41E2,4E1,3E0,5.79E2,9.7E1],"tree_param":{"num_deleted":"0","num_feature":"16","num_nodes":"109","size_leaf_vector":"0"}},{"base_weights":[5.773447E3,4.7738125E3,6.674683E3,3.9301846E3,5.312449E3,6.243979E3,7.149413E3,3.4935308E3,4.2427856E3,4.8880596E3,5.4329478E3,6.0215283E3,6.3771475E3,6.9364946E3,7.5996333E3,2.5319946E3,3.5972788E3,4.0911277E3,4.433134E3,4.857023E3,5.6460386E3,5.2972046E3,5.640511E3,6.087571E3,5.916368E3,6.287526E3,6.5388906E3,6.7679414E3,7.0355303E3,7.336879E3,7.784529E3,2.0144414E3,2.5964966E3,3.2552744E3,3.6704045E3,4.0842876E3,5.553036E3,4.41347E3,4.9958955E3,4.70352E3,5.0181436E3,6.1399766E3,5.130883E3,5.4322505E3,5.2259404E3,5.6169688E3,6.9314155E3,6.0718193E3,6.4609175E3,6.116512E3,5.8451626E3,6.507974E3,6.172451E3,6.86487E3,6.486775E3,6.9415635E3,6.7314224E3,6.9639897E3,7.1481514E3,7.336999E3,7.812215E3,2.399145E3,2.6454956E3,5.862305E3,3.2249946E3,3.6516099E3,5.115154E3,4.0053096E3,4.1875747E3,3.132936E3,4.418622E3,5.9380327E3,4.405064E3,3.6627039E3,4.7094775E3,5.235912E3,4.8883286E3,5.562549E3,3.8606897E3,5.3718345E3,5.5494585E3,5.1346714E3,5.32473E3,5.558763E3,5.8433433E3,6.6900757E3,7.567918E3,6.1699604E3,6.0366597E3,5.8582236E3,6.1859897E3,5.0940938E3,5.8700464E3,6.492026E3,7.3659297E3,5.566182E3,6.212601E3,6.3816597E3,6.9201646E3,6.0170337E3,6.501802E3,6.6522505E3,6.8181133E3,7.189072E3,7.0020737E3,7.4119453E3,6.1880933E3,7.769827E3,8.059307E3],"categories":[],"categories_nodes":[],"categories_segments":[],"categories_sizes":[],"default_left":[1,1,1,1,1,1,1,1,1,1,1,1,1,1,1,1,1,1,1,1,1,1,1,1,1,1,1,1,1,0,1,0,1,1,1,1,0,1,1,1,1,0,1,1,1,1,1,1,0,1,1,1,1,1,1,0,1,0,1,1,1,0,0,0,0,0,0,0,0,0,0,0,0,0,0,0,0,0,0,0,0,0,0,0,0,0,0,0,0,0,0,0,0,0,0,0,0,0,0,0,0,0,0,0,0,0,0,0,0],"id":4,"left_children":[1,3,5,7,9,11,13,15,17,19,21,23,25,27,29,31,33,35,37,39,41,43,45,47,49,51,53,55,57,-1,59,-1,61,63,65,67,-1,69,71,73,75,-1,77,79,81,83,85,87,-1,89,91,93,95,97,99,-1,101,-1,103,105,107,-1,-1,-1,-1,-1,-1,-1,-1,-1,-1,-1,-1,-1,-1,-1,-1,-1,-1,-1,-1,-1,-1,-1,-1,-1,-1,-1,-1,-1,-1,-1,-1,-1,-1,-1,-1,-1,-1,-1,-1,-1,-1,-1,-1,-1,-1,-1,-1],"loss_changes":[1.3771735E10,3.292545E9,1.6407265E9,3.8456115E8,2.2432973E8,1.221591E8,3.628073E8,1.1696845E8,4.6219264E7,2.1065728E7,9.49289E7,8.392704E6,3.526656E7,3.9936E7,5.5517184E7,3.46656E6,2.5754624E7,7.544832E6,6.48704E6,2.1581824E7,7.429632E6,1.8026496E7,3.857613E7,2.879488E6,6.160384E6,4.020224E7,1.2742656E7,2.756608E6,9.601024E6,0E0,4.800512E6,0E0,5.32096E5,1.3491456E7,2.2450176E7,6.2464E6,0E0,3.659776E6,1.1524608E7,1.759232E6,1.1116544E7,0E0,8.917792E6,2.947072E6,1.0358784E7,1.5290368E7,6.8992E4,5.4272E5,0E0,2.57536E5,6.324224E6,4.524032E6,2.4711168E7,2.57024E5,2.914304E6,0E0,2.224128E6,0E0,1.69984E5,4.21376E5,2.592768E6,0E0,0E0,0E0,0E0,0E0,0E0,0E0,0E0,0E0,0E0,0E0,0E0,0E0,0E0,0E0,0E0,0E0,0E0,0E0,0E0,0E0,0E0,0E0,0E0,0E0,0E0,0E0,0E0,0E0,0E0,0E0,0E0,0E0,0E0,0E0,0E0,0E0,0E0,0E0,0E0,0E0,0E0,0E0,0E0,0E0,0E0,0E0,0E0],"parents":[2147483647,0,0,1,1,2,2,3,3,4,4,5,5,6,6,7,7,8,8,9,9,10,10,11,11,12,12,13,13,14,14,15,15,16,16,17,17,18,18,19,19,20,20,21,21,22,22,23,23,24,24,25,25,26,26,27,27,28,28,30,30,32,32,33,33,34,34,35,35,37,37,38,38,39,39,40,40,42,42,43,43,44,44,45,45,46,46,47,47,49,49,50,50,51,51,52,52,53,53,54,54,56,56,58,58,59,59,60,60],"right_children":[2,4,6,8,10,12,14,16,18,20,22,24,26,28,30,32,34,36,38,40,42,44,46,48,50,52,54,56,58,-1,60,-1,62,64,66,68,-1,70,72,74,76,-1,78,80,82,84,86,88,-1,90,92,94,96,98,100,-1,102,-1,104,106,108,-1,-1,-1,-1,-1,-1,-1,-1,-1,-1,-1,-1,-1,-1,-1,-1,-1,-1,-1,-1,-1,-1,-1,-1,-1,-1,-1,-1,-1,-1,-1,-1,-1,-1,-1,-1,-1,-1,-1,-1,-1,-1,-1,-1,-1,-1,-1,-1],"split_conditions":[5.001868E-1,4.3460706E-1,3.9123573E1,3.8840875E-1,4.5666414E-1,5.235652E-1,4.1960236E1,3.108172E-1,4.0993008E-1,3.4926014E1,3.507263E1,2E1,3.7992805E1,4.003293E1,4.2989113E1,2.4222079E-1,2.8290379E1,3.528042E1,3.414044E1,4.4785082E-1,4.188835E-1,7.355E1,3.9371788E1,3.7963993E1,7.355E1,4.4449997E1,5.3E1,7.355E1,5.8815354E-1,7.7729355E1,5.663373E-1,2.1341667E1,2.6077934E1,1.25E-1,3.5265114E1,4.018612E-1,5.8830727E1,2.881813E1,4.262571E-1,2.9314283E1,4.0988505E-1,6.504897E1,2.9E1,4.7895935E-1,4.741524E-1,3.6028908E1,4.929049E-1,7.355E1,6.844913E1,3.5245884E1,3.4073784E1,6.111958E-1,3.498423E1,4.4538933E-1,3.15E-1,7.354125E1,4.799865E-1,7.377885E1,2E1,5.1069736E-1,4.5196976E1,2.5417347E1,2.8027267E1,6.2107227E1,3.4166676E1,3.868638E1,5.4191654E1,4.2433594E1,4.436457E1,3.3191376E1,4.6812363E1,6.290951E1,4.6668724E1,3.8803913E1,4.9893784E1,5.547101E1,5.1788593E1,5.8931507E1,4.090144E1,5.6911015E1,5.8792824E1,5.439843E1,5.6411976E1,5.8891403E1,6.1906338E1,7.087691E1,8.017706E1,6.536663E1,6.3954395E1,6.2063988E1,6.553645E1,5.3968536E1,6.218924E1,6.87787E1,7.803713E1,5.897E1,6.581838E1,6.760944E1,7.3314545E1,6.374647E1,6.888227E1,7.047617E1,7.2233376E1,7.616344E1,7.418232E1,7.8524635E1,6.555874E1,8.2316154E1,8.5383E1],"split_indices":[13,13,15,13,13,13,15,13,13,15,15,11,15,15,15,13,15,15,15,13,14,5,15,15,5,6,8,5,13,0,13,0,15,1,15,13,0,15,13,15,14,0,11,13,13,15,13,5,0,15,15,13,15,14,4,0,14,0,11,14,15,0,0,0,0,0,0,0,0,0,0,0,0,0,0,0,0,0,0,0,0,0,0,0,0,0,0,0,0,0,0,0,0,0,0,0,0,0,0,0,0,0,0,0,0,0,0,0,0],"split_type":[0,0,0,0,0,0,0,0,0,0,0,0,0,0,0,0,0,0,0,0,0,0,0,0,0,0,0,0,0,0,0,0,0,0,0,0,0,0,0,0,0,0,0,0,0,0,0,0,0,0,0,0,0,0,0,0,0,0,0,0,0,0,0,0,0,0,0,0,0,0,0,0,0,0,0,0,0,0,0,0,0,0,0,0,0,0,0,0,0,0,0,0,0,0,0,0,0,0,0,0,0,0,0,0,0,0,0,0,0],"sum_hessian":[1.5289E4,7.249E3,8.04E3,2.825E3,4.424E3,4.216E3,3.824E3,1.179E3,1.646E3,9.79E2,3.445E3,1.58E3,2.636E3,2.597E3,1.227E3,1.15E2,1.064E3,9.17E2,7.29E2,9.41E2,3.8E1,2.084E3,1.361E3,9.68E2,6.12E2,1.698E3,9.38E2,9.63E2,1.634E3,5.08E2,7.19E2,1.3E1,1.02E2,1.88E2,8.76E2,9.13E2,4E0,7.05E2,2.4E1,4.83E2,4.58E2,1.9E1,1.9E1,7.18E2,1.366E3,1.337E3,2.4E1,9.3E2,3.8E1,1.59E2,4.53E2,5.81E2,1.117E3,1.28E2,8.1E2,1.65E2,7.98E2,1.002E3,6.32E2,4.3E1,6.76E2,2.1E1,8.1E1,2E0,1.86E2,8.65E2,1.1E1,5.19E2,3.94E2,3E0,7.02E2,9E0,1.5E1,3E0,4.8E2,1.7E2,2.88E2,1.4E1,5E0,4.76E2,2.42E2,7.12E2,6.54E2,1.065E3,2.72E2,1.8E1,6E0,2.42E2,6.88E2,3.5E1,1.24E2,1.5E1,4.38E2,5.71E2,1E1,7E1,1.047E3,1.4E1,1.14E2,2.6E1,7.84E2,4.2E2,3.78E2,4.91E2,1.41E2,4E1,3E0,5.79E2,9.7E1],"tree_param":{"num_deleted":"0","num_feature":"16","num_nodes":"109","size_leaf_vector":"0"}},{"base_weights":[5.7122964E3,4.7232515E3,6.603986E3,3.888562E3,5.256181E3,6.175594E3,7.0712485E3,3.428898E3,4.179351E3,4.8401206E3,5.3764937E3,5.957754E3,6.307048E3,6.86113E3,7.519143E3,2.5052166E3,3.5370981E3,4.028416E3,4.386186E3,4.8100034E3,5.5865327E3,5.241997E3,5.5807686E3,6.0230913E3,5.853717E3,6.501639E3,6.2345615E3,6.694788E3,6.9610034E3,7.259161E3,7.702088E3,1.9431461E3,2.563287E3,3.1701106E3,3.603664E3,4.019906E3,5.6428457E3,4.36672E3,4.9432935E3,4.653702E3,4.9692163E3,6.075172E3,5.0768994E3,5.374351E3,5.1718765E3,5.548741E3,6.5070713E3,6.007502E3,6.392597E3,6.051769E3,5.7832554E3,6.3564434E3,6.6591997E3,6.1072266E3,6.414422E3,6.875417E3,6.6575327E3,6.8902163E3,7.0724385E3,7.2595083E3,7.729468E3,2.4320994E3,2.6392344E3,3.0592473E3,3.5590417E3,3.5868687E3,4.943901E3,3.9313296E3,4.134876E3,4.369566E3,2.205298E3,5.87562E3,4.358617E3,3.6248054E3,4.659591E3,5.185171E3,4.844193E3,5.5039175E3,3.8203665E3,5.3705693E3,7.534846E3,5.081366E3,5.2683237E3,5.7540093E3,5.4938735E3,6.659564E3,5.4489565E3,6.104613E3,5.9727114E3,5.7962866E3,6.120491E3,5.3719604E3,5.8287866E3,6.3622407E3,3.934822E3,6.553974E3,6.846333E3,5.5072725E3,6.146921E3,5.919227E3,6.4294014E3,6.575982E3,6.7489087E3,7.1129194E3,6.927929E3,7.333561E3,6.124064E3,7.6875215E3,7.973987E3],"categories":[],"categories_nodes":[],"categories_segments":[],"categories_sizes":[],"default_left":[1,1,1,1,1,1,1,1,1,1,1,1,1,1,1,1,1,1,1,1,1,1,1,1,1,1,1,1,1,0,1,0,1,1,1,1,0,1,1,1,1,0,1,1,1,1,1,1,0,1,1,1,1,1,1,0,1,0,1,1,1,0,0,0,0,0,0,0,0,0,0,0,0,0,0,0,0,0,0,0,0,0,0,0,0,0,0,0,0,0,0,0,0,0,0,0,0,0,0,0,0,0,0,0,0,0,0,0,0],"id":5,"left_children":[1,3,5,7,9,11,13,15,17,19,21,23,25,27,29,31,33,35,37,39,41,43,45,47,49,51,53,55,57,-1,59,-1,61,63,65,67,-1,69,71,73,75,-1,77,79,81,83,85,87,-1,89,91,93,95,97,99,-1,101,-1,103,105,107,-1,-1,-1,-1,-1,-1,-1,-1,-1,-1,-1,-1,-1,-1,-1,-1,-1,-1,-1,-1,-1,-1,-1,-1,-1,-1,-1,-1,-1,-1,-1,-1,-1,-1,-1,-1,-1,-1,-1,-1,-1,-1,-1,-1,-1,-1,-1,-1],"loss_changes":[1.3481509E10,3.223126E9,1.6062546E9,3.7659034E8,2.1959475E8,1.1744051E8,3.58187E8,1.0880819E8,5.274624E7,2.0400128E7,9.216819E7,8.21248E6,3.398861E7,4.0165376E7,5.435392E7,3.398912E6,2.3123968E7,1.2127232E7,6.35904E6,2.210816E7,7.270272E6,1.722368E7,3.779379E7,2.82624E6,6.03136E6,1.3166592E7,4.086989E7,3.33824E6,9.396224E6,0E0,4.694016E6,0E0,5.76832E5,5.73376E6,1.7391616E7,8.978432E6,0E0,3.646464E6,1.1286208E7,1.716224E6,1.0945536E7,0E0,8.72608E6,2.942976E6,9.91232E6,1.2558336E7,4.671744E6,5.30432E5,0E0,2.50368E5,6.24128E6,3.400704E6,3.44064E6,2.4199168E7,3.125248E6,0E0,2.912256E6,0E0,1.6384E5,4.02688E5,2.53952E6,0E0,0E0,0E0,0E0,0E0,0E0,0E0,0E0,0E0,0E0,0E0,0E0,0E0,0E0,0E0,0E0,0E0,0E0,0E0,0E0,0E0,0E0,0E0,0E0,0E0,0E0,0E0,0E0,0E0,0E0,0E0,0E0,0E0,0E0,0E0,0E0,0E0,0E0,0E0,0E0,0E0,0E0,0E0,0E0,0E0,0E0,0E0,0E0],"parents":[2147483647,0,0,1,1,2,2,3,3,4,4,5,5,6,6,7,7,8,8,9,9,10,10,11,11,12,12,13,13,14,14,15,15,16,16,17,17,18,18,19,19,20,20,21,21,22,22,23,23,24,24,25,25,26,26,27,27,28,28,30,30,32,32,33,33,34,34,35,35,37,37,38,38,39,39,40,40,42,42,43,43,44,44,45,45,46,46,47,47,49,49,50,50,51,51,52,52,53,53,54,54,56,56,58,58,59,59,60,60],"right_children":[2,4,6,8,10,12,14,16,18,20,22,24,26,28,30,32,34,36,38,40,42,44,46,48,50,52,54,56,58,-1,60,-1,62,64,66,68,-1,70,72,74,76,-1,78,80,82,84,86,88,-1,90,92,94,96,98,100,-1,102,-1,104,106,108,-1,-1,-1,-1,-1,-1,-1,-1,-1,-1,-1,-1,-1,-1,-1,-1,-1,-1,-1,-1,-1,-1,-1,-1,-1,-1,-1,-1,-1,-1,-1,-1,-1,-1,-1,-1,-1,-1,-1,-1,-1,-1,-1,-1,-1,-1,-1,-1],"split_conditions":[5.001868E-1,4.3460706E-1,3.909825E1,3.8591194E-1,4.5823544E-1,5.235652E-1,4.1960236E1,3.108172E-1,4.0993008E-1,3.4926014E1,3.507263E1,2E1,7.355E1,4.003293E1,4.2989113E1,2.3473534E-1,2.8258564E1,3.528042E1,3.414044E1,4.4785082E-1,4.188835E-1,7.355E1,3.8178528E1,3.7963993E1,7.355E1,5.403265E-1,3.7992805E1,7.355E1,5.8815354E-1,7.690599E1,5.663373E-1,2.0586342E1,2.7215397E-1,3.503915E-1,3.5265114E1,4.004441E-1,5.97822E1,3.4057877E1,4.262571E-1,2.9314283E1,4.0988505E-1,6.436241E1,2.9E1,4.656734E-1,4.741524E-1,7.355E1,4.4791597E-1,7.355E1,6.772532E1,3.5245884E1,3.5500755E1,5.4009724E-1,3.796855E1,3.498423E1,3.15E-1,7.284048E1,4.799865E-1,7.299726E1,2E1,5.1069736E-1,4.5196976E1,2.5766476E1,2.7960934E1,3.241069E1,3.770568E1,3.800049E1,5.2377342E1,4.1649826E1,4.3806263E1,4.629265E1,2.3363668E1,6.224829E1,4.617665E1,3.8402405E1,4.936527E1,5.493344E1,5.1321003E1,5.831035E1,4.0474243E1,5.6897614E1,7.982669E1,5.38337E1,5.581439E1,6.0959904E1,5.8203938E1,7.055366E1,5.7728073E1,6.467432E1,6.327691E1,6.1407803E1,6.484254E1,5.691235E1,6.175212E1,6.740371E1,4.1686825E1,6.9435E1,7.253235E1,5.834589E1,6.512254E1,6.2710278E1,6.8115234E1,6.966816E1,7.15002E1,7.535665E1,7.3396805E1,7.769421E1,6.488039E1,8.144418E1,8.447909E1],"split_indices":[13,13,15,13,13,13,15,13,13,15,15,11,5,15,15,13,15,15,15,13,14,5,15,15,5,13,15,5,13,0,13,0,13,13,15,13,0,15,13,15,14,0,11,14,13,5,14,5,0,15,15,13,15,15,4,0,14,0,11,14,15,0,0,0,0,0,0,0,0,0,0,0,0,0,0,0,0,0,0,0,0,0,0,0,0,0,0,0,0,0,0,0,0,0,0,0,0,0,0,0,0,0,0,0,0,0,0,0,0],"split_type":[0,0,0,0,0,0,0,0,0,0,0,0,0,0,0,0,0,0,0,0,0,0,0,0,0,0,0,0,0,0,0,0,0,0,0,0,0,0,0,0,0,0,0,0,0,0,0,0,0,0,0,0,0,0,0,0,0,0,0,0,0,0,0,0,0,0,0,0,0,0,0,0,0,0,0,0,0,0,0,0,0,0,0,0,0,0,0,0,0,0,0,0,0,0,0,0,0,0,0,0,0,0,0,0,0,0,0,0,0],"sum_hessian":[1.5289E4,7.249E3,8.04E3,2.825E3,4.424E3,4.195E3,3.845E3,1.095E3,1.73E3,9.93E2,3.431E3,1.58E3,2.615E3,2.618E3,1.227E3,1.15E2,9.8E2,1.001E3,7.29E2,9.55E2,3.8E1,2.07E3,1.361E3,9.68E2,6.12E2,7.08E2,1.907E3,9.84E2,1.634E3,5.08E2,7.19E2,1.1E1,1.04E2,1.51E2,8.29E2,9.96E2,5E0,7.05E2,2.4E1,4.83E2,4.72E2,1.9E1,1.9E1,7.15E2,1.355E3,1.316E3,4.5E1,9.3E2,3.8E1,1.59E2,4.53E2,3.7E2,3.38E2,1.118E3,7.89E2,1.66E2,8.18E2,1.002E3,6.32E2,4.3E1,6.76E2,3.9E1,6.5E1,1.18E2,3.3E1,8.19E2,1E1,5.64E2,4.32E2,7.04E2,1E0,9E0,1.5E1,3E0,4.8E2,1.72E2,3E2,1.4E1,5E0,7.14E2,1E0,7.01E2,6.54E2,2.76E2,1.04E3,3.9E1,6E0,2.42E2,6.88E2,3.5E1,1.24E2,4.6E1,4.07E2,3.69E2,1E0,2.18E2,1.2E2,7E1,1.048E3,2.4E1,7.65E2,4.35E2,3.83E2,4.91E2,1.41E2,4E1,3E0,5.79E2,9.7E1],"tree_param":{"num_deleted":"0","num_feature":"16","num_nodes":"109","size_leaf_vector":"0"}},{"base_weights":[5.651793E3,4.6732256E3,6.5340366E3,3.8473794E3,5.200509E3,6.110184E3,6.9963486E3,3.4061516E3,4.1439863E3,4.7850566E3,5.31847E3,5.89267E3,6.239058E3,6.7884526E3,7.439505E3,2.4787217E3,3.5104312E3,3.995027E3,4.339735E3,4.75465E3,5.5276543E3,5.18559E3,5.5216567E3,5.957257E3,5.7900874E3,6.4298896E3,6.1678184E3,6.623877E3,6.887266E3,7.1822656E3,7.62052E3,1.922693E3,2.5361677E3,3.49376E3,5.0086055E3,3.8978076E3,4.0970454E3,4.320465E3,4.8912456E3,4.5991934E3,4.907092E3,6.0110513E3,5.0234844E3,5.3178003E3,5.115822E3,5.4985513E3,6.7886206E3,5.946069E3,6.4846006E3,5.9894565E3,5.7200303E3,6.2859185E3,6.58868E3,6.042679E3,6.346477E3,6.8026084E3,6.587013E3,6.8172246E3,6.997527E3,7.182836E3,7.6475967E3,2.342949E3,2.5859155E3,3.2417417E3,3.5989028E3,4.119099E3,6.4653354E3,3.8356074E3,4.0316091E3,4.0846335E3,5.4365107E3,3.0553066E3,4.325559E3,5.813864E3,4.3126597E3,3.587299E3,4.605181E3,5.11745E3,4.7827754E3,5.445904E3,3.780464E3,5.258015E3,5.4338027E3,5.026489E3,5.2125156E3,5.4411016E3,5.722E3,6.5499155E3,7.418967E3,6.045527E3,5.9108174E3,5.714194E3,6.062769E3,4.98374E3,5.744594E3,6.2915464E3,3.8959229E3,6.571982E3,7.8427285E3,5.4489863E3,6.081514E3,5.8567036E3,6.3612925E3,6.506325E3,6.677422E3,7.0375737E3,6.85457E3,7.256006E3,6.0606973E3,7.6060874E3,7.8895703E3],"categories":[],"categories_nodes":[],"categories_segments":[],"categories_sizes":[],"default_left":[1,1,1,1,1,1,1,1,1,1,1,1,1,1,1,1,1,1,1,1,1,1,1,1,1,1,1,1,1,0,1,0,1,1,1,1,1,1,1,1,1,0,1,1,1,1,1,1,0,1,1,1,1,1,1,0,1,0,1,1,1,0,0,0,0,0,0,0,0,0,0,0,0,0,0,0,0,0,0,0,0,0,0,0,0,0,0,0,0,0,0,0,0,0,0,0,0,0,0,0,0,0,0,0,0,0,0,0,0,0,0],"id":6,"left_children":[1,3,5,7,9,11,13,15,17,19,21,23,25,27,29,31,33,35,37,39,41,43,45,47,49,51,53,55,57,-1,59,-1,61,63,65,67,69,71,73,75,77,-1,79,81,83,85,87,89,-1,91,93,95,97,99,101,-1,103,-1,105,107,109,-1,-1,-1,-1,-1,-1,-1,-1,-1,-1,-1,-1,-1,-1,-1,-1,-1,-1,-1,-1,-1,-1,-1,-1,-1,-1,-1,-1,-1,-1,-1,-1,-1,-1,-1,-1,-1,-1,-1,-1,-1,-1,-1,-1,-1,-1,-1,-1,-1,-1],"loss_changes":[1.3197378E10,3.1552143E9,1.5724052E9,3.6870963E8,2.1499085E8,1.1496653E8,3.50634E8,1.0924851E8,4.8009216E7,2.0221952E7,9.095578E7,7.872512E6,3.2956416E7,3.931341E7,5.3211136E7,3.32608E6,2.424832E7,8.37632E6,6.233088E6,2.0682752E7,7.114496E6,1.7281024E7,3.71712E7,2.87744E6,6.008832E6,1.3350912E7,4.0165376E7,3.272704E6,9.199616E6,0E0,4.583424E6,0E0,5.66144E5,2.5928704E7,1.2437632E7,2.9952E6,6.173696E6,3.598336E6,1.1052672E7,1.645568E6,1.0642432E7,0E0,8.538464E6,2.932736E6,9.924608E6,1.492992E7,1.39264E5,7.22944E5,0E0,6.66112E5,6.088704E6,3.3024E6,3.386368E6,2.3683072E7,3.055616E6,0E0,2.850816E6,0E0,1.57696E5,3.84512E5,2.490368E6,0E0,0E0,0E0,0E0,0E0,0E0,0E0,0E0,0E0,0E0,0E0,0E0,0E0,0E0,0E0,0E0,0E0,0E0,0E0,0E0,0E0,0E0,0E0,0E0,0E0,0E0,0E0,0E0,0E0,0E0,0E0,0E0,0E0,0E0,0E0,0E0,0E0,0E0,0E0,0E0,0E0,0E0,0E0,0E0,0E0,0E0,0E0,0E0,0E0,0E0],"parents":[2147483647,0,0,1,1,2,2,3,3,4,4,5,5,6,6,7,7,8,8,9,9,10,10,11,11,12,12,13,13,14,14,15,15,16,16,17,17,18,18,19,19,20,20,21,21,22,22,23,23,24,24,25,25,26,26,27,27,28,28,30,30,32,32,33,33,34,34,35,35,36,36,37,37,38,38,39,39,40,40,42,42,43,43,44,44,45,45,46,46,47,47,49,49,50,50,51,51,52,52,53,53,54,54,56,56,58,58,59,59,60,60],"right_children":[2,4,6,8,10,12,14,16,18,20,22,24,26,28,30,32,34,36,38,40,42,44,46,48,50,52,54,56,58,-1,60,-1,62,64,66,68,70,72,74,76,78,-1,80,82,84,86,88,90,-1,92,94,96,98,100,102,-1,104,-1,106,108,110,-1,-1,-1,-1,-1,-1,-1,-1,-1,-1,-1,-1,-1,-1,-1,-1,-1,-1,-1,-1,-1,-1,-1,-1,-1,-1,-1,-1,-1,-1,-1,-1,-1,-1,-1,-1,-1,-1,-1,-1,-1,-1,-1,-1,-1,-1,-1,-1,-1,-1],"split_conditions":[5.001868E-1,4.3460706E-1,3.909825E1,3.8664687E-1,4.5666414E-1,5.2330303E-1,4.1960236E1,3.108172E-1,4.0993008E-1,3.4926014E1,3.507263E1,2E1,7.355E1,4.003293E1,4.2989113E1,2.3473534E-1,3.5265114E1,3.1018433E1,3.414044E1,4.477248E-1,4.188835E-1,7.355E1,3.9371788E1,3.8476048E1,7.355E1,5.403265E-1,3.7992805E1,7.355E1,5.8815354E-1,7.609133E1,5.663373E-1,2.0369654E1,2.6077934E1,3.505056E-1,9.03E1,4.002638E-1,3.528042E1,2.881813E1,4.262571E-1,2.9314283E1,4.0988505E-1,6.3683094E1,2.9E1,4.7895935E-1,4.741524E-1,3.6028908E1,4.929049E-1,7.355E1,6.8700035E1,3.5245884E1,3.4073784E1,5.4009724E-1,6.201496E-1,3.498423E1,3.15E-1,7.2069115E1,4.799865E-1,7.222396E1,2E1,5.1069736E-1,4.5196976E1,2.4821987E1,2.7396057E1,3.4344097E1,3.8127983E1,4.363912E1,6.849593E1,4.063571E1,4.271222E1,4.327398E1,5.759622E1,3.2368942E1,4.5826424E1,6.159402E1,4.5689762E1,3.800505E1,4.8788834E1,5.4215984E1,5.0670326E1,5.7695732E1,4.0051506E1,5.5705177E1,5.7567528E1,5.3252308E1,5.5223137E1,5.7644855E1,6.062079E1,6.9392E1,7.859902E1,6.404834E1,6.262118E1,6.0538086E1,6.423101E1,5.2799416E1,6.0860157E1,6.6654755E1,4.127471E1,6.962578E1,8.308849E1,5.772839E1,6.44296E1,6.2047882E1,6.739367E1,6.893019E1,7.074284E1,7.455842E1,7.261961E1,7.687256E1,6.420906E1,8.058144E1,8.3584755E1],"split_indices":[13,13,15,13,13,13,15,13,13,15,15,11,5,15,15,13,15,15,15,13,14,5,15,15,5,13,15,5,13,0,13,0,15,13,5,13,15,15,13,15,14,0,11,13,13,15,13,5,0,15,15,13,13,15,4,0,14,0,11,14,15,0,0,0,0,0,0,0,0,0,0,0,0,0,0,0,0,0,0,0,0,0,0,0,0,0,0,0,0,0,0,0,0,0,0,0,0,0,0,0,0,0,0,0,0,0,0,0,0,0,0],"split_type":[0,0,0,0,0,0,0,0,0,0,0,0,0,0,0,0,0,0,0,0,0,0,0,0,0,0,0,0,0,0,0,0,0,0,0,0,0,0,0,0,0,0,0,0,0,0,0,0,0,0,0,0,0,0,0,0,0,0,0,0,0,0,0,0,0,0,0,0,0,0,0,0,0,0,0,0,0,0,0,0,0,0,0,0,0,0,0,0,0,0,0,0,0,0,0,0,0,0,0,0,0,0,0,0,0,0,0,0,0,0,0],"sum_hessian":[1.5289E4,7.249E3,8.04E3,2.825E3,4.424E3,4.195E3,3.845E3,1.136E3,1.689E3,9.79E2,3.445E3,1.562E3,2.633E3,2.618E3,1.227E3,1.15E2,1.021E3,9.6E2,7.29E2,9.41E2,3.8E1,2.084E3,1.361E3,9.56E2,6.06E2,7.14E2,1.919E3,9.84E2,1.634E3,5.08E2,7.19E2,1.1E1,1.04E2,1.01E3,1.1E1,4.93E2,4.67E2,7.05E2,2.4E1,4.67E2,4.74E2,1.9E1,1.9E1,7.18E2,1.366E3,1.337E3,2.4E1,9.37E2,1.9E1,1.56E2,4.5E2,3.76E2,3.38E2,1.13E3,7.89E2,1.66E2,8.18E2,1.002E3,6.32E2,4.3E1,6.76E2,2.2E1,8.2E1,2.98E2,7.12E2,7E0,4E0,3.38E2,1.55E2,4.63E2,4E0,3E0,7.02E2,9E0,1.5E1,3E0,4.64E2,1.75E2,2.99E2,1.4E1,5E0,4.76E2,2.42E2,7.12E2,6.54E2,1.065E3,2.72E2,1.8E1,6E0,2.42E2,6.95E2,3.4E1,1.22E2,1.5E1,4.35E2,3.75E2,1E0,3.34E2,4E0,7E1,1.06E3,2.4E1,7.65E2,4.35E2,3.83E2,4.91E2,1.41E2,4E1,3E0,5.79E2,9.7E1],"tree_param":{"num_deleted":"0","num_feature":"16","num_nodes":"111","size_leaf_vector":"0"}},{"base_weights":[5.591931E3,4.6196567E3,6.461172E3,3.8066348E3,5.142534E3,6.0415273E3,6.9221577E3,3.3835806E3,4.1095005E3,4.7343877E3,5.259507E3,5.8239976E3,6.1729736E3,6.7165E3,7.360711E3,2.4525066E3,3.4840417E3,3.96268E3,4.2937764E3,4.704292E3,5.4693965E3,5.1298022E3,5.458894E3,5.890535E3,5.71946E3,6.361795E3,6.102484E3,6.5669404E3,6.8229736E3,7.106185E3,7.5398164E3,1.9508147E3,2.515033E3,3.1510017E3,3.5552524E3,3.9560488E3,5.3799287E3,4.2747E3,4.8397456E3,4.5555986E3,4.8603643E3,5.712205E3,4.516227E3,5.2614307E3,5.0601675E3,5.436533E3,6.722308E3,5.8795625E3,6.4161587E3,5.921913E3,5.649617E3,6.2193438E3,6.5189097E3,5.9786685E3,6.2792524E3,6.73941E3,6.533466E3,6.756537E3,6.9292256E3,7.106973E3,7.566593E3,2.380907E3,2.5855305E3,5.735203E3,3.121016E3,3.5370269E3,4.9562686E3,3.8793616E3,4.0563418E3,4.277513E3,2.140735E3,5.7527563E3,4.2671875E3,3.5501807E3,4.5613516E3,5.0713613E3,4.734587E3,5.844387E3,4.413958E3,4.180823E3,5.342988E3,5.212244E3,5.404153E3,4.9788457E3,5.162197E3,5.380595E3,5.6589746E3,6.4807983E3,7.4878716E3,5.9792E3,5.84405E3,5.6537827E3,5.992124E3,5.241599E3,5.700194E3,6.2249043E3,3.857409E3,6.4147734E3,6.7041475E3,5.391317E3,6.017089E3,5.7948403E3,6.2939053E3,6.43699E3,6.624019E3,6.9721436E3,6.767383E3,7.1792705E3,5.9979863E3,7.5255156E3,7.8060474E3],"categories":[],"categories_nodes":[],"categories_segments":[],"categories_sizes":[],"default_left":[1,1,1,1,1,1,1,1,1,1,1,1,1,1,1,1,1,1,1,1,1,1,1,1,1,1,1,1,1,0,1,0,1,1,1,1,0,1,1,1,1,1,1,1,1,1,1,1,0,1,1,1,1,1,1,0,1,0,1,1,1,0,0,0,0,0,0,0,0,0,0,0,0,0,0,0,0,0,0,0,0,0,0,0,0,0,0,0,0,0,0,0,0,0,0,0,0,0,0,0,0,0,0,0,0,0,0,0,0,0,0],"id":7,"left_children":[1,3,5,7,9,11,13,15,17,19,21,23,25,27,29,31,33,35,37,39,41,43,45,47,49,51,53,55,57,-1,59,-1,61,63,65,67,-1,69,71,73,75,77,79,81,83,85,87,89,-1,91,93,95,97,99,101,-1,103,-1,105,107,109,-1,-1,-1,-1,-1,-1,-1,-1,-1,-1,-1,-1,-1,-1,-1,-1,-1,-1,-1,-1,-1,-1,-1,-1,-1,-1,-1,-1,-1,-1,-1,-1,-1,-1,-1,-1,-1,-1,-1,-1,-1,-1,-1,-1,-1,-1,-1,-1,-1,-1],"loss_changes":[1.2919308E10,3.0666424E9,1.5585116E9,3.609764E8,2.0790477E8,1.1825971E8,3.433595E8,1.096745E8,4.331725E7,1.9812352E7,8.626176E7,8.667136E6,3.2268288E7,3.85024E7,5.209293E7,3.258048E6,2.443264E7,7.092224E6,6.111232E6,2.0252672E7,6.962304E6,1.705984E7,3.5352576E7,2.89792E6,6.397952E6,1.307648E7,3.9305216E7,3.149824E6,7.430144E6,0E0,4.476928E6,0E0,5.23968E5,1.3290496E7,2.1113856E7,5.895168E6,0E0,3.575808E6,1.0824128E7,1.634304E6,1.0435584E7,3.311552E6,6.37264E5,2.994176E6,9.40032E6,1.425408E7,7.87776E5,8.64256E5,0E0,5.4784E5,7.43424E6,3.217408E6,3.438592E6,2.3179264E7,2.99008E6,0E0,4.943872E6,0E0,6.79936E5,3.67104E5,2.441216E6,0E0,0E0,0E0,0E0,0E0,0E0,0E0,0E0,0E0,0E0,0E0,0E0,0E0,0E0,0E0,0E0,0E0,0E0,0E0,0E0,0E0,0E0,0E0,0E0,0E0,0E0,0E0,0E0,0E0,0E0,0E0,0E0,0E0,0E0,0E0,0E0,0E0,0E0,0E0,0E0,0E0,0E0,0E0,0E0,0E0,0E0,0E0,0E0,0E0,0E0],"parents":[2147483647,0,0,1,1,2,2,3,3,4,4,5,5,6,6,7,7,8,8,9,9,10,10,11,11,12,12,13,13,14,14,15,15,16,16,17,17,18,18,19,19,20,20,21,21,22,22,23,23,24,24,25,25,26,26,27,27,28,28,30,30,32,32,33,33,34,34,35,35,37,37,38,38,39,39,40,40,41,41,42,42,43,43,44,44,45,45,46,46,47,47,49,49,50,50,51,51,52,52,53,53,54,54,56,56,58,58,59,59,60,60],"right_children":[2,4,6,8,10,12,14,16,18,20,22,24,26,28,30,32,34,36,38,40,42,44,46,48,50,52,54,56,58,-1,60,-1,62,64,66,68,-1,70,72,74,76,78,80,82,84,86,88,90,-1,92,94,96,98,100,102,-1,104,-1,106,108,110,-1,-1,-1,-1,-1,-1,-1,-1,-1,-1,-1,-1,-1,-1,-1,-1,-1,-1,-1,-1,-1,-1,-1,-1,-1,-1,-1,-1,-1,-1,-1,-1,-1,-1,-1,-1,-1,-1,-1,-1,-1,-1,-1,-1,-1,-1,-1,-1,-1,-1],"split_conditions":[5.00026E-1,4.3460706E-1,3.909825E1,3.8840875E-1,4.5666414E-1,5.2330303E-1,4.1960236E1,3.108172E-1,4.0993008E-1,3.4926014E1,3.5028885E1,2E1,7.355E1,4.0169823E1,4.2989113E1,2.4222079E-1,2.8290379E1,3.528042E1,3.414044E1,4.4785082E-1,4.3127847E-1,7.355E1,3.9371788E1,3.8476048E1,7.355E1,5.403265E-1,3.7992805E1,7.355E1,5.900761E-1,7.528531E1,5.663373E-1,2.0667585E1,3.5226235E-1,1.25E-1,3.5265114E1,4.018612E-1,5.699677E1,3.4057877E1,4.262571E-1,2.9314283E1,4.0988505E-1,3.8655983E1,3.619934E1,3.4280334E1,4.745353E-1,3.6028908E1,4.929049E-1,7.355E1,6.797494E1,3.5245884E1,3.5500755E1,5.4009724E-1,3.796855E1,3.498423E1,3.15E-1,7.1399574E1,4.799865E-1,7.158102E1,2E1,5.1069736E-1,4.5196976E1,2.5224127E1,2.7391977E1,6.0760666E1,3.306509E1,3.747245E1,5.250837E1,4.109926E1,4.2974247E1,4.531741E1,2.2679667E1,6.094663E1,4.5208015E1,3.7611805E1,4.832449E1,5.3727703E1,5.01598E1,6.1917397E1,4.676295E1,4.4293045E1,5.6605404E1,5.5220264E1,5.7253407E1,5.2747562E1,5.4690044E1,5.700383E1,5.9953075E1,6.865975E1,7.9329025E1,6.3345654E1,6.1913822E1,5.989807E1,6.348257E1,5.5531258E1,6.0389767E1,6.594872E1,4.0866684E1,6.796026E1,7.1025986E1,5.711742E1,6.374706E1,6.1392483E1,6.667974E1,6.819563E1,7.017708E1,7.386523E1,7.169592E1,7.60596E1,6.3544678E1,7.972784E1,8.269988E1],"split_indices":[13,13,15,13,13,13,15,13,13,15,15,11,5,15,15,13,15,15,15,13,14,5,15,15,5,13,15,5,13,0,13,0,14,1,15,13,0,15,13,15,14,15,15,15,13,15,13,5,0,15,15,13,15,15,4,0,14,0,11,14,15,0,0,0,0,0,0,0,0,0,0,0,0,0,0,0,0,0,0,0,0,0,0,0,0,0,0,0,0,0,0,0,0,0,0,0,0,0,0,0,0,0,0,0,0,0,0,0,0,0,0],"split_type":[0,0,0,0,0,0,0,0,0,0,0,0,0,0,0,0,0,0,0,0,0,0,0,0,0,0,0,0,0,0,0,0,0,0,0,0,0,0,0,0,0,0,0,0,0,0,0,0,0,0,0,0,0,0,0,0,0,0,0,0,0,0,0,0,0,0,0,0,0,0,0,0,0,0,0,0,0,0,0,0,0,0,0,0,0,0,0,0,0,0,0,0,0,0,0,0,0,0,0,0,0,0,0,0,0,0,0,0,0,0,0],"sum_hessian":[1.5289E4,7.217E3,8.072E3,2.825E3,4.392E3,4.226E3,3.846E3,1.179E3,1.646E3,9.79E2,3.413E3,1.593E3,2.633E3,2.619E3,1.227E3,1.15E2,1.064E3,9.17E2,7.29E2,9.41E2,3.8E1,2.069E3,1.344E3,9.71E2,6.22E2,7.14E2,1.919E3,1.091E3,1.528E3,5.08E2,7.19E2,1.3E1,1.02E2,1.88E2,8.76E2,9.13E2,4E0,7.05E2,2.4E1,4.83E2,4.58E2,3E1,8E0,7.14E2,1.355E3,1.321E3,2.3E1,9.52E2,1.9E1,1.58E2,4.64E2,3.76E2,3.38E2,1.13E3,7.89E2,1.75E2,9.16E2,9.43E2,5.85E2,4.3E1,6.76E2,3.6E1,6.6E1,2E0,1.86E2,8.65E2,1.1E1,5.19E2,3.94E2,7.04E2,1E0,9E0,1.5E1,3E0,4.8E2,1.7E2,2.88E2,2.7E1,3E0,6E0,2E0,5.33E2,1.81E2,7.56E2,5.99E2,1.057E3,2.64E2,1.8E1,5E0,2.47E2,7.05E2,3.4E1,1.24E2,5.2E1,4.12E2,3.75E2,1E0,2.18E2,1.2E2,7E1,1.06E3,2.4E1,7.65E2,4.46E2,4.7E2,4.6E2,1.25E2,4E1,3E0,5.79E2,9.7E1],"tree_param":{"num_deleted":"0","num_feature":"16","num_nodes":"111","size_leaf_vector":"0"}},{"base_weights":[5.532703E3,4.57475E3,6.396362E3,3.7663206E3,5.090913E3,5.9814517E3,6.84892E3,3.320918E3,4.0480881E3,4.6842593E3,5.2063765E3,5.7704805E3,6.1087603E3,6.645399E3,7.282751E3,2.4265693E3,3.425682E3,3.9019827E3,4.248304E3,4.654468E3,5.411846E3,5.076301E3,5.4052734E3,5.833758E3,5.6697236E3,6.297291E3,6.0385317E3,6.4842144E3,6.7421763E3,7.0309106E3,7.4599673E3,1.8819214E3,2.4828408E3,2.996164E3,3.4797375E3,3.8937197E3,5.4696704E3,4.22942E3,4.7887876E3,4.5022334E3,4.8037505E3,5.8867173E3,4.916637E3,5.205736E3,5.0079976E3,5.3741235E3,6.3062397E3,5.818551E3,6.1942783E3,5.861519E3,5.601488E3,6.1566807E3,6.4498755E3,5.9151987E3,6.2127393E3,6.6592017E3,6.448123E3,6.673572E3,6.850176E3,7.031912E3,7.4864473E3,2.3543774E3,2.5572407E3,2.9468267E3,4.646048E3,7.6130747E3,3.4743535E3,3.8078254E3,4.0052095E3,2.9794329E3,4.234457E3,5.6165845E3,4.1719087E3,3.5134465E3,4.5080825E3,5.0097046E3,4.682037E3,5.331237E3,3.6968245E3,5.2020034E3,7.354954E3,4.9203594E3,5.102579E3,5.5771255E3,5.3198696E3,6.45572E3,5.269881E3,5.9125586E3,5.7848716E3,5.614467E3,5.927968E3,4.875925E3,5.625534E3,6.1622725E3,3.819275E3,6.4333335E3,7.693586E3,5.334258E3,5.953635E3,5.733631E3,6.2272314E3,6.3692217E3,6.5365283E3,6.8893403E3,6.710362E3,7.103347E3,5.935925E3,7.445798E3,7.723408E3],"categories":[],"categories_nodes":[],"categories_segments":[],"categories_sizes":[],"default_left":[1,1,1,1,1,1,1,1,1,1,1,1,1,1,1,1,1,1,1,1,1,1,1,1,1,1,1,1,1,0,1,0,1,1,1,1,0,1,1,1,1,0,1,1,1,1,1,1,0,1,1,1,1,1,1,0,1,0,1,1,1,0,0,0,0,0,0,0,0,0,0,0,0,0,0,0,0,0,0,0,0,0,0,0,0,0,0,0,0,0,0,0,0,0,0,0,0,0,0,0,0,0,0,0,0,0,0,0,0],"id":8,"left_children":[1,3,5,7,9,11,13,15,17,19,21,23,25,27,29,31,33,35,37,39,41,43,45,47,49,51,53,55,57,-1,59,-1,61,63,65,67,-1,69,71,73,75,-1,77,79,81,83,85,87,-1,89,91,93,95,97,99,-1,101,-1,103,105,107,-1,-1,-1,-1,-1,-1,-1,-1,-1,-1,-1,-1,-1,-1,-1,-1,-1,-1,-1,-1,-1,-1,-1,-1,-1,-1,-1,-1,-1,-1,-1,-1,-1,-1,-1,-1,-1,-1,-1,-1,-1,-1,-1,-1,-1,-1,-1,-1],"loss_changes":[1.2647203E10,3.023536E9,1.5067382E9,3.535831E8,2.0597146E8,1.1014963E8,3.3603584E8,1.0200678E8,4.9422336E7,1.9417088E7,8.717107E7,7.70048E6,3.190784E7,3.7707776E7,5.100749E7,3.191808E6,2.2008832E7,1.1441152E7,5.988352E6,1.9832832E7,6.878464E6,1.6560128E7,3.5762176E7,2.721792E6,5.656576E6,1.2341248E7,3.833856E7,3.137536E6,8.830976E6,0E0,4.374528E6,0E0,5.632E5,7.978624E6,1.7465344E7,8.444928E6,0E0,3.534848E6,1.0612864E7,1.56672E6,1.0203136E7,0E0,8.232608E6,3.016704E6,9.5232E6,1.236992E7,4.544E6,4.95616E5,0E0,2.26304E5,5.938176E6,3.149824E6,3.408896E6,2.269184E7,2.920448E6,0E0,2.719744E6,0E0,1.45408E5,3.5008E5,2.392064E6,0E0,0E0,0E0,0E0,0E0,0E0,0E0,0E0,0E0,0E0,0E0,0E0,0E0,0E0,0E0,0E0,0E0,0E0,0E0,0E0,0E0,0E0,0E0,0E0,0E0,0E0,0E0,0E0,0E0,0E0,0E0,0E0,0E0,0E0,0E0,0E0,0E0,0E0,0E0,0E0,0E0,0E0,0E0,0E0,0E0,0E0,0E0,0E0],"parents":[2147483647,0,0,1,1,2,2,3,3,4,4,5,5,6,6,7,7,8,8,9,9,10,10,11,11,12,12,13,13,14,14,15,15,16,16,17,17,18,18,19,19,20,20,21,21,22,22,23,23,24,24,25,25,26,26,27,27,28,28,30,30,32,32,33,33,34,34,35,35,37,37,38,38,39,39,40,40,42,42,43,43,44,44,45,45,46,46,47,47,49,49,50,50,51,51,52,52,53,53,54,54,56,56,58,58,59,59,60,60],"right_children":[2,4,6,8,10,12,14,16,18,20,22,24,26,28,30,32,34,36,38,40,42,44,46,48,50,52,54,56,58,-1,60,-1,62,64,66,68,-1,70,72,74,76,-1,78,80,82,84,86,88,-1,90,92,94,96,98,100,-1,102,-1,104,106,108,-1,-1,-1,-1,-1,-1,-1,-1,-1,-1,-1,-1,-1,-1,-1,-1,-1,-1,-1,-1,-1,-1,-1,-1,-1,-1,-1,-1,-1,-1,-1,-1,-1,-1,-1,-1,-1,-1,-1,-1,-1,-1,-1,-1,-1,-1,-1,-1],"split_conditions":[5.001868E-1,4.3460706E-1,3.909825E1,3.8591194E-1,4.5666414E-1,5.235652E-1,4.1960236E1,3.108172E-1,4.0993008E-1,3.4926014E1,3.507263E1,2E1,7.355E1,4.003293E1,4.2989113E1,2.3473534E-1,2.8027657E1,3.528042E1,3.414044E1,4.477248E-1,4.188835E-1,7.355E1,3.8178528E1,3.7963993E1,7.355E1,5.403265E-1,3.7992805E1,7.355E1,5.8815354E-1,7.448782E1,5.663373E-1,1.9937706E1,2.7215397E-1,3.7392694E-1,7.95E-2,4.004441E-1,5.794752E1,2.881813E1,4.2801076E-1,2.9314283E1,4.0988505E-1,6.2365856E1,2.9E1,4.656734E-1,4.7413427E-1,7.355E1,4.4791597E-1,7.355E1,6.562426E1,3.5245884E1,3.4073784E1,5.4009724E-1,6.201496E-1,3.498423E1,3.15E-1,7.054981E1,4.799865E-1,7.070206E1,2E1,5.1069736E-1,4.5196976E1,2.4943064E1,2.7092266E1,3.121967E1,4.922179E1,8.0655464E1,3.6808468E1,4.034138E1,4.2432533E1,3.1565111E1,4.486126E1,5.950398E1,4.41986E1,3.722263E1,4.776014E1,5.307449E1,4.9603073E1,5.648091E1,3.9165398E1,5.511177E1,7.792085E1,5.2127937E1,5.4058434E1,5.9085938E1,5.636048E1,6.8394066E1,5.5830887E1,6.263963E1,6.128687E1,5.9481544E1,6.280288E1,5.165718E1,5.9598797E1,6.528518E1,4.046268E1,6.815689E1,8.150843E1,5.6512917E1,6.3074802E1,6.0744007E1,6.597338E1,6.747767E1,6.9250175E1,7.298798E1,7.109183E1,7.525524E1,6.2887177E1,7.888328E1,8.182438E1],"split_indices":[13,13,15,13,13,13,15,13,13,15,15,11,5,15,15,13,15,15,15,13,14,5,15,15,5,13,15,5,13,0,13,0,13,13,2,13,0,15,13,15,14,0,11,14,13,5,14,5,0,15,15,13,13,15,4,0,14,0,11,14,15,0,0,0,0,0,0,0,0,0,0,0,0,0,0,0,0,0,0,0,0,0,0,0,0,0,0,0,0,0,0,0,0,0,0,0,0,0,0,0,0,0,0,0,0,0,0,0,0],"split_type":[0,0,0,0,0,0,0,0,0,0,0,0,0,0,0,0,0,0,0,0,0,0,0,0,0,0,0,0,0,0,0,0,0,0,0,0,0,0,0,0,0,0,0,0,0,0,0,0,0,0,0,0,0,0,0,0,0,0,0,0,0,0,0,0,0,0,0,0,0,0,0,0,0,0,0,0,0,0,0,0,0,0,0,0,0,0,0,0,0,0,0,0,0,0,0,0,0,0,0,0,0,0,0,0,0,0,0,0,0],"sum_hessian":[1.5289E4,7.249E3,8.04E3,2.825E3,4.424E3,4.195E3,3.845E3,1.095E3,1.73E3,9.79E2,3.445E3,1.58E3,2.615E3,2.618E3,1.227E3,1.15E2,9.8E2,1.001E3,7.29E2,9.41E2,3.8E1,2.084E3,1.361E3,9.68E2,6.12E2,7.08E2,1.907E3,9.84E2,1.634E3,5.08E2,7.19E2,1.1E1,1.04E2,1.1E2,8.7E2,9.96E2,5E0,7.05E2,2.4E1,4.67E2,4.74E2,1.9E1,1.9E1,7.18E2,1.366E3,1.316E3,4.5E1,9.3E2,3.8E1,1.59E2,4.53E2,3.7E2,3.38E2,1.118E3,7.89E2,1.66E2,8.18E2,1.002E3,6.32E2,4.3E1,6.76E2,3.9E1,6.5E1,1.07E2,3E0,1E0,8.69E2,5.64E2,4.32E2,3E0,7.02E2,1E1,1.4E1,3E0,4.64E2,1.75E2,2.99E2,1.4E1,5E0,7.17E2,1E0,7.11E2,6.55E2,2.76E2,1.04E3,3.9E1,6E0,2.42E2,6.88E2,3.5E1,1.24E2,1.5E1,4.38E2,3.69E2,1E0,3.34E2,4E0,7E1,1.048E3,2.4E1,7.65E2,4.35E2,3.83E2,4.91E2,1.41E2,4E1,3E0,5.79E2,9.7E1],"tree_param":{"num_deleted":"0","num_feature":"16","num_nodes":"109","size_leaf_vector":"0"}},{"base_weights":[5.4741025E3,4.5262974E3,6.328612E3,3.726434E3,5.0369917E3,5.918098E3,6.776375E3,3.285753E3,4.0052146E3,4.634658E3,5.151228E3,5.709365E3,6.0440557E3,6.575007E3,7.205617E3,2.4009062E3,3.3894036E3,3.8606538E3,4.203314E3,4.605171E3,5.354809E3,5.022529E3,5.3480205E3,5.7719673E3,5.609684E3,6.230601E3,5.974567E3,6.428457E3,6.679242E3,6.956433E3,7.3809634E3,1.9096661E3,2.4621306E3,3.0758364E3,3.4620884E3,3.8524744E3,5.412542E3,4.1846196E3,4.7383623E3,4.4595635E3,4.758005E3,5.824586E3,4.864908E3,5.1505977E3,4.954947E3,5.3255757E3,6.57882E3,5.7569165E3,6.1287773E3,5.7994746E3,5.5421616E3,6.0914756E3,6.381575E3,5.852539E3,6.146931E3,6.597496E3,6.395613E3,6.6142036E3,6.783259E3,6.9576436E3,7.4071504E3,2.3300051E3,2.5315933E3,5.643707E3,3.0455737E3,7.537813E3,3.4562751E3,3.7674893E3,3.962784E3,4.1874004E3,2.0777114E3,5.6332573E3,4.1771904E3,3.4770925E3,4.4651836E3,4.964604E3,4.634849E3,5.275044E3,3.6582124E3,5.1468975E3,7.2822446E3,4.8738525E3,5.0551626E3,5.2702334E3,5.546922E3,6.3449834E3,7.1971494E3,5.56892E3,5.773178E3,5.555107E3,5.8652007E3,5.1446304E3,5.5861777E3,6.097E3,3.7815186E3,6.2785176E3,6.5649365E3,5.2778027E3,5.890564E3,5.673068E3,6.1612646E3,6.3008994E3,6.484314E3,6.825313E3,6.624677E3,7.0282266E3,5.874505E3,7.3669243E3,7.6416445E3],"categories":[],"categories_nodes":[],"categories_segments":[],"categories_sizes":[],"default_left":[1,1,1,1,1,1,1,1,1,1,1,1,1,1,1,1,1,1,1,1,1,1,1,1,1,1,1,1,1,0,1,0,1,1,1,1,0,1,1,1,1,0,1,1,1,1,1,1,0,1,1,1,1,1,1,0,1,0,1,1,1,0,0,0,0,0,0,0,0,0,0,0,0,0,0,0,0,0,0,0,0,0,0,0,0,0,0,0,0,0,0,0,0,0,0,0,0,0,0,0,0,0,0,0,0,0,0,0,0],"id":9,"left_children":[1,3,5,7,9,11,13,15,17,19,21,23,25,27,29,31,33,35,37,39,41,43,45,47,49,51,53,55,57,-1,59,-1,61,63,65,67,-1,69,71,73,75,-1,77,79,81,83,85,87,-1,89,91,93,95,97,99,-1,101,-1,103,105,107,-1,-1,-1,-1,-1,-1,-1,-1,-1,-1,-1,-1,-1,-1,-1,-1,-1,-1,-1,-1,-1,-1,-1,-1,-1,-1,-1,-1,-1,-1,-1,-1,-1,-1,-1,-1,-1,-1,-1,-1,-1,-1,-1,-1,-1,-1,-1,-1],"loss_changes":[1.2380668E10,2.9598024E9,1.474986E9,3.461284E8,2.016297E8,1.0780672E8,3.2894157E8,9.985126E7,4.8379904E7,1.9021824E7,8.532787E7,7.540736E6,3.1236096E7,3.6921344E7,4.993843E7,3.123904E6,2.1573632E7,1.1211776E7,5.87264E6,1.9421184E7,6.731136E6,1.6207872E7,3.509043E7,2.668544E6,5.53984E6,1.2085248E7,3.753165E7,3.026944E6,7.12704E6,0E0,4.276224E6,0E0,5.13984E5,1.315008E7,1.6969728E7,8.267776E6,0E0,3.5072E6,1.0402048E7,1.555456E6,1.0005504E7,0E0,8.055648E6,2.977792E6,9.33888E6,1.4282752E7,2.07552E5,5.38624E5,0E0,2.2016E5,5.86752E6,3.070976E6,3.436544E6,2.2208512E7,2.854912E6,0E0,4.759552E6,0E0,6.61504E5,3.33824E5,2.342912E6,0E0,0E0,0E0,0E0,0E0,0E0,0E0,0E0,0E0,0E0,0E0,0E0,0E0,0E0,0E0,0E0,0E0,0E0,0E0,0E0,0E0,0E0,0E0,0E0,0E0,0E0,0E0,0E0,0E0,0E0,0E0,0E0,0E0,0E0,0E0,0E0,0E0,0E0,0E0,0E0,0E0,0E0,0E0,0E0,0E0,0E0,0E0,0E0],"parents":[2147483647,0,0,1,1,2,2,3,3,4,4,5,5,6,6,7,7,8,8,9,9,10,10,11,11,12,12,13,13,14,14,15,15,16,16,17,17,18,18,19,19,20,20,21,21,22,22,23,23,24,24,25,25,26,26,27,27,28,28,30,30,32,32,33,33,34,34,35,35,37,37,38,38,39,39,40,40,42,42,43,43,44,44,45,45,46,46,47,47,49,49,50,50,51,51,52,52,53,53,54,54,56,56,58,58,59,59,60,60],"right_children":[2,4,6,8,10,12,14,16,18,20,22,24,26,28,30,32,34,36,38,40,42,44,46,48,50,52,54,56,58,-1,60,-1,62,64,66,68,-1,70,72,74,76,-1,78,80,82,84,86,88,-1,90,92,94,96,98,100,-1,102,-1,104,106,108,-1,-1,-1,-1,-1,-1,-1,-1,-1,-1,-1,-1,-1,-1,-1,-1,-1,-1,-1,-1,-1,-1,-1,-1,-1,-1,-1,-1,-1,-1,-1,-1,-1,-1,-1,-1,-1,-1,-1,-1,-1,-1,-1,-1,-1,-1,-1,-1],"split_conditions":[5.001868E-1,4.3460706E-1,3.909825E1,3.8591194E-1,4.5666414E-1,5.235652E-1,4.1960236E1,3.108172E-1,4.0993008E-1,3.4926014E1,3.507263E1,2E1,7.355E1,4.0169823E1,4.2989113E1,2.4222079E-1,2.8290379E1,3.528042E1,3.414044E1,4.4785082E-1,4.188835E-1,7.355E1,3.9371788E1,3.7963993E1,7.355E1,5.403265E-1,3.7992805E1,7.355E1,5.900761E-1,7.3698784E1,5.663373E-1,2.0231644E1,3.5226235E-1,1.25E-1,7.95E-2,4.004441E-1,5.7342285E1,3.4057877E1,4.262571E-1,2.9314283E1,4.0988505E-1,6.170762E1,2.9E1,4.656734E-1,4.745353E-1,3.6038246E1,4.929049E-1,3.15E-1,6.493032E1,3.5245884E1,3.5500755E1,5.4009724E-1,3.796855E1,3.498423E1,3.15E-1,6.989609E1,4.799865E-1,7.007309E1,2E1,5.1069736E-1,4.5196976E1,2.4684856E1,2.6820549E1,5.9791325E1,3.226583E1,7.9858116E1,3.661694E1,3.9914043E1,4.1983063E1,4.4362724E1,2.2011972E1,5.968062E1,4.4254555E1,3.6837486E1,4.7305653E1,5.259668E1,4.9103146E1,5.5885586E1,3.875633E1,5.4527958E1,7.715054E1,5.1635227E1,5.3556087E1,5.583462E1,5.876595E1,6.722088E1,7.6249016E1,5.8999004E1,6.1162987E1,5.8852665E1,6.21379E1,5.450394E1,5.918184E1,6.4593666E1,4.0062675E1,6.651672E1,6.955114E1,5.5914814E1,6.240661E1,6.0102383E1,6.5274506E1,6.6753845E1,6.8697E1,7.2309654E1,7.0184044E1,7.445939E1,6.2236473E1,7.804767E1,8.0958145E1],"split_indices":[13,13,15,13,13,13,15,13,13,15,15,11,5,15,15,13,15,15,15,13,14,5,15,15,5,13,15,5,13,0,13,0,14,1,2,13,0,15,13,15,14,0,11,14,13,15,13,3,0,15,15,13,15,15,4,0,14,0,11,14,15,0,0,0,0,0,0,0,0,0,0,0,0,0,0,0,0,0,0,0,0,0,0,0,0,0,0,0,0,0,0,0,0,0,0,0,0,0,0,0,0,0,0,0,0,0,0,0,0],"split_type":[0,0,0,0,0,0,0,0,0,0,0,0,0,0,0,0,0,0,0,0,0,0,0,0,0,0,0,0,0,0,0,0,0,0,0,0,0,0,0,0,0,0,0,0,0,0,0,0,0,0,0,0,0,0,0,0,0,0,0,0,0,0,0,0,0,0,0,0,0,0,0,0,0,0,0,0,0,0,0,0,0,0,0,0,0,0,0,0,0,0,0,0,0,0,0,0,0,0,0,0,0,0,0,0,0,0,0,0,0],"sum_hessian":[1.5289E4,7.249E3,8.04E3,2.825E3,4.424E3,4.195E3,3.845E3,1.095E3,1.73E3,9.79E2,3.445E3,1.58E3,2.615E3,2.618E3,1.227E3,1.15E2,9.8E2,1.001E3,7.29E2,9.41E2,3.8E1,2.084E3,1.361E3,9.68E2,6.12E2,7.08E2,1.907E3,1.09E3,1.528E3,5.08E2,7.19E2,1.3E1,1.02E2,1.85E2,7.95E2,9.96E2,5E0,7.05E2,2.4E1,4.83E2,4.58E2,1.9E1,1.9E1,7.18E2,1.366E3,1.337E3,2.4E1,9.3E2,3.8E1,1.59E2,4.53E2,3.7E2,3.38E2,1.118E3,7.89E2,1.75E2,9.15E2,9.43E2,5.85E2,4.3E1,6.76E2,3.6E1,6.6E1,2E0,1.83E2,1E0,7.94E2,5.64E2,4.32E2,7.04E2,1E0,9E0,1.5E1,3E0,4.8E2,1.7E2,2.88E2,1.4E1,5E0,7.17E2,1E0,7.57E2,6.09E2,1.071E3,2.66E2,1.8E1,6E0,7.6E1,8.54E2,3.5E1,1.24E2,4.6E1,4.07E2,3.69E2,1E0,2.18E2,1.2E2,7E1,1.048E3,2.4E1,7.65E2,4.45E2,4.7E2,4.6E2,1.25E2,4E1,3E0,5.79E2,9.7E1],"tree_param":{"num_deleted":"0","num_feature":"16","num_nodes":"109","size_leaf_vector":"0"}},{"base_weights":[5.416123E3,4.4783584E3,6.2615796E3,3.6869697E3,4.9836416E3,5.855415E3,6.7045986E3,3.2770288E3,3.9804478E3,4.5892163E3,5.097698E3,5.646984E3,5.9789077E3,6.505361E3,7.1293E3,2.3755151E3,3.3743003E3,3.8383472E3,4.1587993E3,4.560603E3,5.2983726E3,4.9701787E3,5.2913755E3,5.7088423E3,5.548735E3,6.161816E3,5.910626E3,6.347498E3,6.6001436E3,6.882745E3,7.3027964E3,1.8420121E3,2.4306357E3,3.1340713E3,3.469646E3,3.8319263E3,5.210675E3,4.140293E3,4.688472E3,4.4123296E3,4.711639E3,5.7631104E3,4.8137236E3,5.0956655E3,4.9036963E3,5.2608174E3,6.17525E3,5.6980356E3,6.2183755E3,5.739943E3,5.481546E3,6.023839E3,6.3139956E3,5.7907153E3,6.08182E3,6.518816E3,6.3121636E3,6.532947E3,6.7059272E3,6.884159E3,7.328693E3,2.24235E3,2.4791492E3,6.371295E3,3.100185E3,3.4599607E3,4.6331323E3,3.7577192E3,3.928975E3,2.9052769E3,4.1452734E3,5.49978E3,4.0839062E3,3.4411145E3,4.4178853E3,4.916654E3,4.592951E3,5.219443E3,3.620004E3,5.0300386E3,5.199949E3,3.4479902E3,4.9089043E3,5.4616616E3,5.2071436E3,6.3224297E3,5.155244E3,5.7945103E3,5.6638486E3,5.475926E3,5.810263E3,4.7702686E3,5.5052827E3,6.0292017E3,3.744135E3,6.297608E3,7.547421E3,5.2219453E3,5.82792E3,5.613144E3,6.095996E3,6.489572E3,7.212847E3,6.2350127E3,6.398607E3,6.744229E3,6.569191E3,6.9539004E3,5.81372E3,7.288886E3,7.560746E3],"categories":[],"categories_nodes":[],"categories_segments":[],"categories_sizes":[],"default_left":[1,1,1,1,1,1,1,1,1,1,1,1,1,1,1,1,1,1,1,1,1,1,1,1,1,1,1,1,1,0,1,0,1,1,1,1,0,1,1,1,1,0,1,1,1,1,1,1,0,1,1,1,1,1,1,1,1,0,1,1,1,0,0,0,0,0,0,0,0,0,0,0,0,0,0,0,0,0,0,0,0,0,0,0,0,0,0,0,0,0,0,0,0,0,0,0,0,0,0,0,0,0,0,0,0,0,0,0,0,0,0],"id":10,"left_children":[1,3,5,7,9,11,13,15,17,19,21,23,25,27,29,31,33,35,37,39,41,43,45,47,49,51,53,55,57,-1,59,-1,61,63,65,67,-1,69,71,73,75,-1,77,79,81,83,85,87,-1,89,91,93,95,97,99,101,103,-1,105,107,109,-1,-1,-1,-1,-1,-1,-1,-1,-1,-1,-1,-1,-1,-1,-1,-1,-1,-1,-1,-1,-1,-1,-1,-1,-1,-1,-1,-1,-1,-1,-1,-1,-1,-1,-1,-1,-1,-1,-1,-1,-1,-1,-1,-1,-1,-1,-1,-1,-1,-1],"loss_changes":[1.2119769E10,2.8973957E9,1.4438892E9,3.389481E8,1.9735347E8,1.055785E8,3.220439E8,1.0281984E8,4.057293E7,1.8419712E7,8.285389E7,7.221248E6,3.0277632E7,3.617587E7,4.888576E7,3.06304E6,2.359296E7,6.649856E6,5.75488E6,1.9894272E7,6.58688E6,1.548288E7,3.443507E7,2.72384E6,5.5296E6,1.2265472E7,3.687219E7,3.006464E6,8.470528E6,0E0,4.17792E6,0E0,5.52192E5,3.1830528E7,7.426048E6,5.517312E6,0E0,3.473408E6,1.0197056E7,1.517568E6,9.869312E6,0E0,7.882464E6,3.018752E6,9.060352E6,1.2148736E7,4.430336E6,7.39328E5,0E0,6.1696E5,5.716992E6,2.978816E6,3.426304E6,2.1733376E7,2.793472E6,1.6384E4,2.592768E6,0E0,1.35168E5,3.17696E5,2.297856E6,0E0,0E0,0E0,0E0,0E0,0E0,0E0,0E0,0E0,0E0,0E0,0E0,0E0,0E0,0E0,0E0,0E0,0E0,0E0,0E0,0E0,0E0,0E0,0E0,0E0,0E0,0E0,0E0,0E0,0E0,0E0,0E0,0E0,0E0,0E0,0E0,0E0,0E0,0E0,0E0,0E0,0E0,0E0,0E0,0E0,0E0,0E0,0E0,0E0,0E0],"parents":[2147483647,0,0,1,1,2,2,3,3,4,4,5,5,6,6,7,7,8,8,9,9,10,10,11,11,12,12,13,13,14,14,15,15,16,16,17,17,18,18,19,19,20,20,21,21,22,22,23,23,24,24,25,25,26,26,27,27,28,28,30,30,32,32,33,33,34,34,35,35,37,37,38,38,39,39,40,40,42,42,43,43,44,44,45,45,46,46,47,47,49,49,50,50,51,51,52,52,53,53,54,54,55,55,56,56,58,58,59,59,60,60],"right_children":[2,4,6,8,10,12,14,16,18,20,22,24,26,28,30,32,34,36,38,40,42,44,46,48,50,52,54,56,58,-1,60,-1,62,64,66,68,-1,70,72,74,76,-1,78,80,82,84,86,88,-1,90,92,94,96,98,100,102,104,-1,106,108,110,-1,-1,-1,-1,-1,-1,-1,-1,-1,-1,-1,-1,-1,-1,-1,-1,-1,-1,-1,-1,-1,-1,-1,-1,-1,-1,-1,-1,-1,-1,-1,-1,-1,-1,-1,-1,-1,-1,-1,-1,-1,-1,-1,-1,-1,-1,-1,-1,-1,-1],"split_conditions":[5.001868E-1,4.3460706E-1,3.909825E1,3.8840875E-1,4.5823544E-1,5.2330303E-1,4.1960236E1,3.108172E-1,4.0993008E-1,3.4926014E1,3.507263E1,2E1,7.355E1,4.003293E1,4.2989113E1,2.3473534E-1,3.505056E-1,3.528042E1,3.414044E1,4.4785082E-1,4.188835E-1,7.355E1,3.8178528E1,3.8476048E1,7.355E1,5.403265E-1,3.7992805E1,7.355E1,5.8815354E-1,7.291811E1,5.663373E-1,1.9514894E1,2.6077934E1,1.25E-1,3.5265114E1,4.018612E-1,5.5203636E1,2.881813E1,4.2801076E-1,2.9314283E1,4.0988505E-1,6.1056324E1,2.9E1,4.768596E-1,4.0065774E-1,7.355E1,4.4791597E-1,7.355E1,6.5879555E1,3.5245884E1,3.4073784E1,5.4009724E-1,6.201496E-1,3.498423E1,3.15E-1,5.8815354E-1,4.799865E-1,6.921223E1,2E1,5.1069736E-1,4.5196976E1,2.3756208E1,2.6264938E1,6.749963E1,3.28444E1,3.6655983E1,4.9084957E1,3.981054E1,4.162488E1,3.0779478E1,4.3916416E1,5.826651E1,4.3266273E1,3.645632E1,4.6804558E1,5.208868E1,4.8659264E1,5.5296528E1,3.8351536E1,5.3289917E1,5.5090008E1,3.6529163E1,5.200658E1,5.7862675E1,5.5166225E1,6.698194E1,5.4616386E1,6.1388985E1,6.000471E1,5.8013794E1,6.1555878E1,5.0537827E1,5.832481E1,6.3875385E1,3.9666622E1,6.671897E1,7.995991E1,5.532304E1,6.174294E1,5.946753E1,6.458303E1,6.87527E1,7.641532E1,6.605582E1,6.778899E1,7.145062E1,6.9596214E1,7.367195E1,6.1592503E1,7.722091E1,8.010108E1],"split_indices":[13,13,15,13,13,13,15,13,13,15,15,11,5,15,15,13,13,15,15,13,14,5,15,15,5,13,15,5,13,0,13,0,15,1,15,13,0,15,13,15,14,0,11,13,14,5,14,5,0,15,15,13,13,15,4,13,14,0,11,14,15,0,0,0,0,0,0,0,0,0,0,0,0,0,0,0,0,0,0,0,0,0,0,0,0,0,0,0,0,0,0,0,0,0,0,0,0,0,0,0,0,0,0,0,0,0,0,0,0,0,0],"split_type":[0,0,0,0,0,0,0,0,0,0,0,0,0,0,0,0,0,0,0,0,0,0,0,0,0,0,0,0,0,0,0,0,0,0,0,0,0,0,0,0,0,0,0,0,0,0,0,0,0,0,0,0,0,0,0,0,0,0,0,0,0,0,0,0,0,0,0,0,0,0,0,0,0,0,0,0,0,0,0,0,0,0,0,0,0,0,0,0,0,0,0,0,0,0,0,0,0,0,0,0,0,0,0,0,0,0,0,0,0,0,0],"sum_hessian":[1.5289E4,7.249E3,8.04E3,2.825E3,4.424E3,4.195E3,3.845E3,1.179E3,1.646E3,9.93E2,3.431E3,1.562E3,2.633E3,2.618E3,1.227E3,1.15E2,1.064E3,9.17E2,7.29E2,9.55E2,3.8E1,2.07E3,1.361E3,9.56E2,6.06E2,7.14E2,1.919E3,9.84E2,1.634E3,5.08E2,7.19E2,1.1E1,1.04E2,3.03E2,7.61E2,9.13E2,4E0,7.05E2,2.4E1,4.83E2,4.72E2,1.9E1,1.9E1,7.15E2,1.355E3,1.316E3,4.5E1,9.37E2,1.9E1,1.56E2,4.5E2,3.76E2,3.38E2,1.13E3,7.89E2,1.66E2,8.18E2,1.002E3,6.32E2,4.3E1,6.76E2,2.2E1,8.2E1,3E0,3E2,7.55E2,6E0,5.19E2,3.94E2,3E0,7.02E2,1E1,1.4E1,3E0,4.8E2,1.72E2,3E2,1.4E1,5E0,4.41E2,2.74E2,5E0,1.35E3,2.76E2,1.04E3,3.9E1,6E0,2.42E2,6.95E2,3.4E1,1.22E2,1.5E1,4.35E2,3.75E2,1E0,3.34E2,4E0,7E1,1.06E3,2.4E1,7.65E2,1.6E2,6E0,4.35E2,3.83E2,4.91E2,1.41E2,4E1,3E0,5.79E2,9.7E1],"tree_param":{"num_deleted":"0","num_feature":"16","num_nodes":"111","size_leaf_vector":"0"}},{"base_weights":[5.3587573E3,4.430927E3,6.195258E3,3.6479233E3,4.930856E3,5.7933965E3,6.6335835E3,3.229313E3,3.9293262E3,4.5369946E3,5.0426865E3,5.587177E3,5.9155786E3,6.436454E3,7.053791E3,2.3503914E3,3.3281382E3,3.7882183E3,4.114757E3,4.508106E3,5.2425312E3,4.9167017E3,5.2353296E3,5.648375E3,5.4899766E3,6.0965605E3,5.848016E3,6.2929272E3,6.538539E3,6.809837E3,7.2254575E3,1.8226235E3,2.4049192E3,3.3119226E3,4.785936E3,3.6936375E3,3.8874827E3,4.096437E3,4.639103E3,4.360586E3,4.6527666E3,5.702283E3,4.763077E3,5.042082E3,4.8505376E3,5.213302E3,6.44328E3,5.6376777E3,6.152743E3,5.679187E3,5.4234897E3,5.9600405E3,6.247134E3,5.729374E3,6.0173984E3,6.4586025E3,6.2607373E3,6.474869E3,6.6403667E3,6.811451E3,7.2510674E3,2.2791233E3,2.4778035E3,3.0685254E3,3.4134749E3,3.9095469E3,6.2238027E3,3.6346506E3,3.8205273E3,3.8757234E3,5.1564434E3,4.099186E3,2.0161921E3,5.516242E3,4.0890906E3,3.4055088E3,4.3662344E3,4.8523115E3,4.5348413E3,5.1644277E3,3.5821943E3,5.038412E3,7.160528E3,4.770331E3,4.949663E3,5.157906E3,5.4287866E3,6.2119976E3,7.0556094E3,5.733139E3,5.6038506E3,5.418034E3,5.7487437E3,5.034512E3,5.4668784E3,5.9653384E3,3.7071213E3,6.1451436E3,6.428637E3,5.1666787E3,5.766181E3,5.553854E3,6.0314194E3,6.1680356E3,6.3475547E3,6.681575E3,6.4849766E3,6.8803604E3,5.753565E3,7.2116753E3,7.480704E3],"categories":[],"categories_nodes":[],"categories_segments":[],"categories_sizes":[],"default_left":[1,1,1,1,1,1,1,1,1,1,1,1,1,1,1,1,1,1,1,1,1,1,1,1,1,1,1,1,1,0,1,0,1,1,1,1,1,1,1,1,1,0,1,1,1,1,1,1,0,1,1,1,1,1,1,0,1,0,1,1,1,0,0,0,0,0,0,0,0,0,0,0,0,0,0,0,0,0,0,0,0,0,0,0,0,0,0,0,0,0,0,0,0,0,0,0,0,0,0,0,0,0,0,0,0,0,0,0,0,0,0],"id":11,"left_children":[1,3,5,7,9,11,13,15,17,19,21,23,25,27,29,31,33,35,37,39,41,43,45,47,49,51,53,55,57,-1,59,-1,61,63,65,67,69,71,73,75,77,-1,79,81,83,85,87,89,-1,91,93,95,97,99,101,-1,103,-1,105,107,109,-1,-1,-1,-1,-1,-1,-1,-1,-1,-1,-1,-1,-1,-1,-1,-1,-1,-1,-1,-1,-1,-1,-1,-1,-1,-1,-1,-1,-1,-1,-1,-1,-1,-1,-1,-1,-1,-1,-1,-1,-1,-1,-1,-1,-1,-1,-1,-1,-1,-1],"loss_changes":[1.1864375E10,2.8363325E9,1.4134477E9,3.318825E8,1.9321651E8,1.0333389E8,3.1526093E8,9.811763E7,4.307763E7,1.8262016E7,8.176435E7,7.0656E6,2.9646848E7,3.5414016E7,4.786176E7,2.997376E6,2.3002112E7,7.983104E6,5.64224E6,1.862656E7,6.445568E6,1.554432E7,3.380429E7,2.670592E6,5.41696E6,1.2009472E7,3.609805E7,2.916352E6,6.828032E6,0E0,4.087808E6,0E0,5.4944E5,2.4214528E7,1.2207856E7,2.695168E6,5.53728E6,3.439616E6,9.996416E6,1.455104E6,9.577472E6,0E0,7.713024E6,2.994176E6,9.168896E6,1.3955072E7,2.67712E5,7.22944E5,0E0,6.02624E5,5.622784E6,2.905088E6,3.427328E6,2.1270528E7,2.727936E6,0E0,4.554752E6,0E0,6.41024E5,3.02592E5,2.248704E6,0E0,0E0,0E0,0E0,0E0,0E0,0E0,0E0,0E0,0E0,0E0,0E0,0E0,0E0,0E0,0E0,0E0,0E0,0E0,0E0,0E0,0E0,0E0,0E0,0E0,0E0,0E0,0E0,0E0,0E0,0E0,0E0,0E0,0E0,0E0,0E0,0E0,0E0,0E0,0E0,0E0,0E0,0E0,0E0,0E0,0E0,0E0,0E0,0E0,0E0],"parents":[2147483647,0,0,1,1,2,2,3,3,4,4,5,5,6,6,7,7,8,8,9,9,10,10,11,11,12,12,13,13,14,14,15,15,16,16,17,17,18,18,19,19,20,20,21,21,22,22,23,23,24,24,25,25,26,26,27,27,28,28,30,30,32,32,33,33,34,34,35,35,36,36,37,37,38,38,39,39,40,40,42,42,43,43,44,44,45,45,46,46,47,47,49,49,50,50,51,51,52,52,53,53,54,54,56,56,58,58,59,59,60,60],"right_children":[2,4,6,8,10,12,14,16,18,20,22,24,26,28,30,32,34,36,38,40,42,44,46,48,50,52,54,56,58,-1,60,-1,62,64,66,68,70,72,74,76,78,-1,80,82,84,86,88,90,-1,92,94,96,98,100,102,-1,104,-1,106,108,110,-1,-1,-1,-1,-1,-1,-1,-1,-1,-1,-1,-1,-1,-1,-1,-1,-1,-1,-1,-1,-1,-1,-1,-1,-1,-1,-1,-1,-1,-1,-1,-1,-1,-1,-1,-1,-1,-1,-1,-1,-1,-1,-1,-1,-1,-1,-1,-1,-1,-1],"split_conditions":[5.001868E-1,4.3460706E-1,3.909825E1,3.8664687E-1,4.5666414E-1,5.2330303E-1,4.1960236E1,3.108172E-1,4.0993008E-1,3.4926014E1,3.507263E1,2E1,7.355E1,4.0169823E1,4.2989113E1,2.3473534E-1,3.5265114E1,3.1018433E1,3.414044E1,4.477248E-1,4.188835E-1,7.355E1,3.9371788E1,3.8476048E1,7.355E1,5.403265E-1,3.7992805E1,7.355E1,5.900761E-1,7.21457E1,5.663373E-1,1.9309484E1,2.7215397E-1,3.505056E-1,9.03E1,4.002638E-1,3.528042E1,3.4057877E1,4.262571E-1,2.9314283E1,4.0988505E-1,6.04119E1,2.9E1,4.656734E-1,4.745353E-1,3.6028908E1,4.929049E-1,7.355E1,6.518423E1,3.5245884E1,3.5500755E1,5.4009724E-1,3.796855E1,3.498423E1,3.15E-1,6.84246E1,4.799865E-1,6.859693E1,2E1,5.1069736E-1,4.5196976E1,2.4145796E1,2.625068E1,3.2508987E1,3.6163498E1,4.1419052E1,6.593705E1,3.8506706E1,4.047595E1,4.1060715E1,5.462909E1,4.342815E1,2.1360216E1,5.8440918E1,4.3321198E1,3.60791E1,4.625735E1,5.1407017E1,4.804363E1,5.471368E1,3.795097E1,5.3378628E1,7.586103E1,5.0538486E1,5.2438393E1,5.4644585E1,5.7514385E1,6.581199E1,7.474949E1,6.07388E1,5.9369072E1,5.740047E1,6.0904118E1,5.333731E1,5.7917942E1,6.3198795E1,3.9274487E1,6.5103714E1,6.810714E1,5.4737526E1,6.1088856E1,5.8839394E1,6.389888E1,6.534624E1,6.724812E1,7.078685E1,6.870402E1,7.2892845E1,6.0955196E1,7.640291E1,7.925309E1],"split_indices":[13,13,15,13,13,13,15,13,13,15,15,11,5,15,15,13,15,15,15,13,14,5,15,15,5,13,15,5,13,0,13,0,13,13,5,13,15,15,13,15,14,0,11,14,13,15,13,5,0,15,15,13,15,15,4,0,14,0,11,14,15,0,0,0,0,0,0,0,0,0,0,0,0,0,0,0,0,0,0,0,0,0,0,0,0,0,0,0,0,0,0,0,0,0,0,0,0,0,0,0,0,0,0,0,0,0,0,0,0,0,0],"split_type":[0,0,0,0,0,0,0,0,0,0,0,0,0,0,0,0,0,0,0,0,0,0,0,0,0,0,0,0,0,0,0,0,0,0,0,0,0,0,0,0,0,0,0,0,0,0,0,0,0,0,0,0,0,0,0,0,0,0,0,0,0,0,0,0,0,0,0,0,0,0,0,0,0,0,0,0,0,0,0,0,0,0,0,0,0,0,0,0,0,0,0,0,0,0,0,0,0,0,0,0,0,0,0,0,0,0,0,0,0,0,0],"sum_hessian":[1.5289E4,7.249E3,8.04E3,2.825E3,4.424E3,4.195E3,3.845E3,1.136E3,1.689E3,9.79E2,3.445E3,1.562E3,2.633E3,2.618E3,1.227E3,1.15E2,1.021E3,9.6E2,7.29E2,9.41E2,3.8E1,2.084E3,1.361E3,9.56E2,6.06E2,7.14E2,1.919E3,1.09E3,1.528E3,5.08E2,7.19E2,1.1E1,1.04E2,1.01E3,1.1E1,4.93E2,4.67E2,7.05E2,2.4E1,4.67E2,4.74E2,1.9E1,1.9E1,7.18E2,1.366E3,1.337E3,2.4E1,9.37E2,1.9E1,1.56E2,4.5E2,3.76E2,3.38E2,1.13E3,7.89E2,1.75E2,9.15E2,9.43E2,5.85E2,4.3E1,6.76E2,3.9E1,6.5E1,2.98E2,7.12E2,7E0,4E0,3.38E2,1.55E2,4.63E2,4E0,7.04E2,1E0,9E0,1.5E1,3E0,4.64E2,1.75E2,2.99E2,1.4E1,5E0,7.17E2,1E0,7.57E2,6.09E2,1.065E3,2.72E2,1.8E1,6E0,2.42E2,6.95E2,3.4E1,1.22E2,4.6E1,4.04E2,3.75E2,1E0,2.18E2,1.2E2,7E1,1.06E3,2.4E1,7.65E2,4.45E2,4.7E2,4.6E2,1.25E2,4E1,3E0,5.79E2,9.7E1],"tree_param":{"num_deleted":"0","num_feature":"16","num_nodes":"111","size_leaf_vector":"0"}},{"base_weights":[5.301999E3,4.380134E3,6.1261724E3,3.6092908E3,4.875885E3,5.7283047E3,6.563237E3,3.1823235E3,3.879396E3,4.4889526E3,4.9867773E3,5.522079E3,5.85292E3,6.3682275E3,6.979082E3,2.325534E3,3.2826877E3,3.7394436E3,4.07118E3,4.46036E3,5.1872783E3,4.8637925E3,5.1758354E3,5.5535757E3,5.3205913E3,6.031995E3,5.786069E3,6.2262866E3,6.4692773E3,6.7377017E3,7.1489375E3,1.849353E3,2.3848826E3,2.8651326E3,3.3352417E3,3.7315E3,5.246706E3,4.0530444E3,4.590258E3,4.3144014E3,4.603489E3,5.6420986E3,4.712964E3,4.988643E3,4.7977437E3,5.1545044E3,6.3811616E3,5.669422E3,5.511976E3,5.490826E3,5.1249395E3,5.875286E3,6.16035E3,5.668682E3,5.953659E3,6.390206E3,6.194473E3,6.406278E3,6.570033E3,6.739511E3,7.1742637E3,2.2552852E3,2.4530488E3,2.8164475E3,4.4953413E3,7.3699756E3,3.3299912E3,3.649061E3,3.8385054E3,1.9831155E3,4.0557825E3,5.385404E3,3.9977595E3,4.244035E3,4.398304E3,4.800926E3,4.486809E3,5.9871646E3,5.291144E3,5.1099927E3,3.5447798E3,4.940232E3,5.129191E3,2.947546E3,4.8016924E3,5.1005913E3,5.368916E3,6.1464463E3,7.127336E3,6.2940913E3,5.6466553E3,4.633856E3,5.5212656E3,5.326455E3,5.8548784E3,5.205344E3,4.5489517E3,5.881094E3,3.7368323E3,6.1461255E3,7.4041733E3,5.111997E3,5.705096E3,5.49519E3,5.9675264E3,6.359131E3,6.9766733E3,6.103015E3,6.280317E3,6.6107993E3,6.416312E3,6.8075977E3,5.694032E3,7.1352817E3,7.4015093E3],"categories":[],"categories_nodes":[],"categories_segments":[],"categories_sizes":[],"default_left":[1,1,1,1,1,1,1,1,1,1,1,1,1,1,1,1,1,1,1,1,1,1,1,1,1,1,1,1,1,0,1,0,1,1,1,1,0,1,1,1,1,1,1,1,1,1,1,1,1,1,1,1,1,1,1,1,1,0,1,1,1,0,0,0,0,0,0,0,0,0,0,0,0,0,0,0,0,0,0,0,0,0,0,0,0,0,0,0,0,0,0,0,0,0,0,0,0,0,0,0,0,0,0,0,0,0,0,0,0,0,0,0,0,0,0],"id":12,"left_children":[1,3,5,7,9,11,13,15,17,19,21,23,25,27,29,31,33,35,37,39,41,43,45,47,49,51,53,55,57,-1,59,-1,61,63,65,67,-1,69,71,73,75,77,79,81,83,85,87,89,91,93,95,97,99,101,103,105,107,-1,109,111,113,-1,-1,-1,-1,-1,-1,-1,-1,-1,-1,-1,-1,-1,-1,-1,-1,-1,-1,-1,-1,-1,-1,-1,-1,-1,-1,-1,-1,-1,-1,-1,-1,-1,-1,-1,-1,-1,-1,-1,-1,-1,-1,-1,-1,-1,-1,-1,-1,-1,-1,-1,-1,-1,-1],"loss_changes":[1.1614355E10,2.7567063E9,1.4009958E9,3.249234E8,1.8684314E8,1.0628301E8,3.0870733E8,9.36192E7,4.534272E7,1.788928E7,7.756186E7,7.991296E6,2.9024256E7,3.4676736E7,4.685824E7,2.935808E6,2.0820992E7,1.0582016E7,5.530624E6,1.823744E7,6.307264E6,1.5351808E7,3.2202752E7,4.390912E6,5.212672E6,1.1763712E7,3.533619E7,2.854912E6,6.684672E6,0E0,3.9936E6,0E0,5.05216E5,7.828672E6,1.6672768E7,7.7824E6,0E0,3.42016E6,9.797664E6,1.419264E6,9.376768E6,3.9168E4,7.547232E6,3.04128E6,8.886272E6,1.3307904E7,9.00928E5,2.587648E6,6.447104E6,4.651008E6,3.030016E6,2.43712E6,3.659776E6,2.0815872E7,2.666496E6,1.024E4,4.44416E6,0E0,6.22592E5,2.87616E5,2.203648E6,0E0,0E0,0E0,0E0,0E0,0E0,0E0,0E0,0E0,0E0,0E0,0E0,0E0,0E0,0E0,0E0,0E0,0E0,0E0,0E0,0E0,0E0,0E0,0E0,0E0,0E0,0E0,0E0,0E0,0E0,0E0,0E0,0E0,0E0,0E0,0E0,0E0,0E0,0E0,0E0,0E0,0E0,0E0,0E0,0E0,0E0,0E0,0E0,0E0,0E0,0E0,0E0,0E0,0E0],"parents":[2147483647,0,0,1,1,2,2,3,3,4,4,5,5,6,6,7,7,8,8,9,9,10,10,11,11,12,12,13,13,14,14,15,15,16,16,17,17,18,18,19,19,20,20,21,21,22,22,23,23,24,24,25,25,26,26,27,27,28,28,30,30,32,32,33,33,34,34,35,35,37,37,38,38,39,39,40,40,41,41,42,42,43,43,44,44,45,45,46,46,47,47,48,48,49,49,50,50,51,51,52,52,53,53,54,54,55,55,56,56,58,58,59,59,60,60],"right_children":[2,4,6,8,10,12,14,16,18,20,22,24,26,28,30,32,34,36,38,40,42,44,46,48,50,52,54,56,58,-1,60,-1,62,64,66,68,-1,70,72,74,76,78,80,82,84,86,88,90,92,94,96,98,100,102,104,106,108,-1,110,112,114,-1,-1,-1,-1,-1,-1,-1,-1,-1,-1,-1,-1,-1,-1,-1,-1,-1,-1,-1,-1,-1,-1,-1,-1,-1,-1,-1,-1,-1,-1,-1,-1,-1,-1,-1,-1,-1,-1,-1,-1,-1,-1,-1,-1,-1,-1,-1,-1,-1,-1,-1,-1,-1,-1],"split_conditions":[5.00026E-1,4.3460706E-1,3.909825E1,3.8591194E-1,4.5666414E-1,5.2330303E-1,4.1960236E1,3.108172E-1,4.0993008E-1,3.4926014E1,3.5028885E1,2.9E1,7.355E1,4.0169823E1,4.2989113E1,2.4222079E-1,2.8027657E1,3.528042E1,3.414044E1,4.477248E-1,4.188835E-1,7.355E1,3.9371788E1,7.355E1,4.526555E-1,5.3747416E-1,3.7992805E1,7.355E1,5.900761E-1,7.138147E1,5.663373E-1,1.9592667E1,3.5226235E-1,3.7392694E-1,7.95E-2,4.004441E-1,5.5585365E1,2.8451681E1,4.2801076E-1,3.3182533E1,4.0988505E-1,1.875E1,2.9E1,3.4280334E1,3.9560926E-1,3.6028908E1,4.929049E-1,3.3267937E1,3.304266E1,3.6528404E1,5.194786E-1,6.25E-1,6.201496E-1,3.498423E1,3.15E-1,5.8815354E-1,4.799865E-1,6.7870255E1,2E1,5.1069736E-1,4.5196976E1,2.3893248E1,2.5988422E1,2.983839E1,4.7625153E1,7.8079994E1,3.5279045E1,3.8659378E1,4.0666412E1,2.100979E1,4.296832E1,5.7054775E1,4.2353603E1,4.496273E1,4.659711E1,5.0862617E1,4.753476E1,6.343003E1,5.6056156E1,5.4136974E1,3.7554585E1,5.2338474E1,5.434037E1,3.122729E1,5.087074E1,5.4037376E1,5.6880096E1,6.5117516E1,7.5509384E1,6.668172E1,5.982256E1,4.9092625E1,5.849414E1,5.6430252E1,6.2028545E1,5.5147163E1,4.819312E1,6.2306286E1,3.9589256E1,6.511411E1,7.84423E1,5.415821E1,6.0441704E1,5.8217884E1,6.3221977E1,6.7370766E1,7.3913216E1,6.465739E1,6.653578E1,7.0037025E1,6.797656E1,7.212197E1,6.0324486E1,7.559357E1,7.841407E1],"split_indices":[13,13,15,13,13,13,15,13,13,15,15,11,5,15,15,13,15,15,15,13,14,5,15,5,14,13,15,5,13,0,13,0,14,13,2,13,0,15,13,15,14,0,11,15,14,15,13,15,15,15,13,1,13,15,4,13,14,0,11,14,15,0,0,0,0,0,0,0,0,0,0,0,0,0,0,0,0,0,0,0,0,0,0,0,0,0,0,0,0,0,0,0,0,0,0,0,0,0,0,0,0,0,0,0,0,0,0,0,0,0,0,0,0,0,0],"split_type":[0,0,0,0,0,0,0,0,0,0,0,0,0,0,0,0,0,0,0,0,0,0,0,0,0,0,0,0,0,0,0,0,0,0,0,0,0,0,0,0,0,0,0,0,0,0,0,0,0,0,0,0,0,0,0,0,0,0,0,0,0,0,0,0,0,0,0,0,0,0,0,0,0,0,0,0,0,0,0,0,0,0,0,0,0,0,0,0,0,0,0,0,0,0,0,0,0,0,0,0,0,0,0,0,0,0,0,0,0,0,0,0,0,0,0],"sum_hessian":[1.5289E4,7.217E3,8.072E3,2.825E3,4.392E3,4.226E3,3.846E3,1.095E3,1.73E3,9.79E2,3.413E3,1.593E3,2.633E3,2.619E3,1.227E3,1.15E2,9.8E2,1.001E3,7.29E2,9.41E2,3.8E1,2.069E3,1.344E3,1.376E3,2.17E2,7.14E2,1.919E3,1.091E3,1.528E3,5.08E2,7.19E2,1.3E1,1.02E2,1.1E2,8.7E2,9.96E2,5E0,7.05E2,2.4E1,4.67E2,4.74E2,1.9E1,1.9E1,7.14E2,1.355E3,1.321E3,2.3E1,3.61E2,1.015E3,1.15E2,1.02E2,3.23E2,3.91E2,1.13E3,7.89E2,1.75E2,9.16E2,9.43E2,5.85E2,4.3E1,6.76E2,3.6E1,6.6E1,1.07E2,3E0,1E0,8.69E2,5.64E2,4.32E2,1E0,7.04E2,1E1,1.4E1,2.56E2,2.11E2,1.75E2,2.99E2,9E0,1E1,1.4E1,5E0,5.33E2,1.81E2,3E0,1.352E3,1.057E3,2.64E2,1.8E1,5E0,1.2E1,3.49E2,1.1E1,1.004E3,8E1,3.5E1,8.9E1,1.3E1,3.22E2,1E0,3.87E2,4E0,7E1,1.06E3,2.4E1,7.65E2,1.67E2,8E0,4.46E2,4.7E2,4.6E2,1.25E2,4E1,3E0,5.79E2,9.7E1],"tree_param":{"num_deleted":"0","num_feature":"16","num_nodes":"115","size_leaf_vector":"0"}},{"base_weights":[5.245843E3,4.3375527E3,6.0647266E3,3.571067E3,4.8269365E3,5.6713467E3,6.493801E3,3.173896E3,3.8554026E3,4.503807E3,4.9576626E3,5.471345E3,5.792035E3,6.3008203E3,6.905164E3,2.3009397E3,3.2680862E3,3.7178352E3,4.0280647E3,4.3350083E3,4.654796E3,4.83316E3,5.130578E3,5.53164E3,5.37534E3,5.970879E3,5.725415E3,6.1477886E3,6.3927026E3,6.66633E3,7.0732275E3,1.7839731E3,2.3543525E3,3.0343213E3,3.3608677E3,3.711611E3,5.0481685E3,4.0101116E3,4.541923E3,4.3171294E3,5.3569497E3,4.848074E3,4.5249443E3,4.943756E3,4.777802E3,5.1012593E3,5.969159E3,5.5169575E3,5.879911E3,5.557839E3,5.310415E3,5.8374062E3,6.11572E3,5.6084736E3,5.8905947E3,6.3138433E3,6.11354E3,6.327556E3,6.4952593E3,6.668331E3,7.0982734E3,2.1699363E3,2.401892E3,6.227001E3,3.0009148E3,3.3514094E3,4.4974136E3,3.6281624E3,3.7939324E3,3.933448E3,4.094406E3,5.4016587E3,4.0028477E3,4.25012E3,4.406571E3,5.8514497E3,3.2449448E3,4.8139663E3,5.4416343E3,2.6229324E3,4.5292075E3,4.9394805E3,7.039034E3,4.400307E3,4.8007925E3,5.051018E3,5.317041E3,6.1147954E3,4.985505E3,5.3315195E3,5.5330117E3,5.3221655E3,5.621247E3,4.9248403E3,5.3531187E3,5.842741E3,3.6097139E3,6.0147856E3,6.295385E3,5.0578945E3,5.644901E3,5.437145E3,5.90431E3,6.2851157E3,6.9966763E3,6.0389854E3,6.197072E3,6.353935E3,6.213939E3,6.5308105E3,6.353088E3,6.7356045E3,5.635115E3,7.051983E3,7.2851143E3],"categories":[],"categories_nodes":[],"categories_segments":[],"categories_sizes":[],"default_left":[1,1,1,1,1,1,1,1,1,1,1,1,1,1,1,1,1,1,1,1,1,1,1,1,1,1,1,1,1,0,1,0,1,1,1,1,0,1,1,1,1,1,1,1,1,1,1,1,0,1,1,1,1,1,1,1,1,1,1,1,1,0,0,0,0,0,0,0,0,0,0,0,0,0,0,0,0,0,0,0,0,0,0,0,0,0,0,0,0,0,0,0,0,0,0,0,0,0,0,0,0,0,0,0,0,0,0,0,0,0,0,0,0,0,0],"id":13,"left_children":[1,3,5,7,9,11,13,15,17,19,21,23,25,27,29,31,33,35,37,39,41,43,45,47,49,51,53,55,57,-1,59,-1,61,63,65,67,-1,69,71,73,75,77,79,81,83,85,87,89,-1,91,93,95,97,99,101,103,105,107,109,111,113,-1,-1,-1,-1,-1,-1,-1,-1,-1,-1,-1,-1,-1,-1,-1,-1,-1,-1,-1,-1,-1,-1,-1,-1,-1,-1,-1,-1,-1,-1,-1,-1,-1,-1,-1,-1,-1,-1,-1,-1,-1,-1,-1,-1,-1,-1,-1,-1,-1,-1,-1,-1,-1,-1],"loss_changes":[1.1369841E10,2.7179336E9,1.3544325E9,3.181609E8,1.8528666E8,9.899213E7,3.0212096E8,9.640858E7,3.8027264E7,3.1051776E7,6.601933E7,7.016448E6,2.8704768E7,3.398861E7,4.58752E7,2.87648E6,2.2347776E7,6.250496E6,5.420032E6,9.361408E6,1.529344E7,9.5232E6,3.0195712E7,2.627584E6,5.136384E6,1.1124736E7,3.446784E7,2.834432E6,7.974912E6,0E0,3.895296E6,0E0,5.38816E5,3.098496E7,7.100416E6,5.284864E6,0E0,3.401728E6,9.606624E6,2.210816E6,9.157856E6,3.570176E6,2.41664E6,2.96448E6,9.101312E6,1.1876352E7,4.128512E6,6.53312E5,0E0,2.3296E5,5.57056E6,2.88768E6,3.419136E6,2.0381696E7,2.607104E6,1.05984E5,2.410496E6,1.72032E5,2.19136E5,2.73536E5,2.166784E6,0E0,0E0,0E0,0E0,0E0,0E0,0E0,0E0,0E0,0E0,0E0,0E0,0E0,0E0,0E0,0E0,0E0,0E0,0E0,0E0,0E0,0E0,0E0,0E0,0E0,0E0,0E0,0E0,0E0,0E0,0E0,0E0,0E0,0E0,0E0,0E0,0E0,0E0,0E0,0E0,0E0,0E0,0E0,0E0,0E0,0E0,0E0,0E0,0E0,0E0,0E0,0E0,0E0,0E0],"parents":[2147483647,0,0,1,1,2,2,3,3,4,4,5,5,6,6,7,7,8,8,9,9,10,10,11,11,12,12,13,13,14,14,15,15,16,16,17,17,18,18,19,19,20,20,21,21,22,22,23,23,24,24,25,25,26,26,27,27,28,28,30,30,32,32,33,33,34,34,35,35,37,37,38,38,39,39,40,40,41,41,42,42,43,43,44,44,45,45,46,46,47,47,49,49,50,50,51,51,52,52,53,53,54,54,55,55,56,56,57,57,58,58,59,59,60,60],"right_children":[2,4,6,8,10,12,14,16,18,20,22,24,26,28,30,32,34,36,38,40,42,44,46,48,50,52,54,56,58,-1,60,-1,62,64,66,68,-1,70,72,74,76,78,80,82,84,86,88,90,-1,92,94,96,98,100,102,104,106,108,110,112,114,-1,-1,-1,-1,-1,-1,-1,-1,-1,-1,-1,-1,-1,-1,-1,-1,-1,-1,-1,-1,-1,-1,-1,-1,-1,-1,-1,-1,-1,-1,-1,-1,-1,-1,-1,-1,-1,-1,-1,-1,-1,-1,-1,-1,-1,-1,-1,-1,-1,-1,-1,-1,-1,-1],"split_conditions":[5.001868E-1,4.3460706E-1,3.909825E1,3.8840875E-1,4.628189E-1,5.235652E-1,4.1960236E1,3.108172E-1,4.0993008E-1,4.4987625E-1,3.5117085E1,2E1,7.355E1,4.003293E1,4.2989113E1,2.3473534E-1,3.505056E-1,3.528042E1,3.414044E1,3.5597206E1,7.355E1,7.355E1,3.8178528E1,3.7963993E1,7.355E1,5.403265E-1,3.7992805E1,7.355E1,5.8815354E-1,7.0625336E1,5.663373E-1,1.890001E1,2.6077934E1,1.25E-1,3.5265114E1,3.1018433E1,5.348199E1,4.255836E-1,4.262571E-1,4.4358116E-1,4.4687486E-1,3.478343E1,3.8451922E-1,4.656734E-1,3.2672382E1,3.6038246E1,4.4791597E-1,3.15E-1,6.229375E1,3.5245884E1,3.5500755E1,5.4009724E-1,3.796855E1,3.498423E1,3.15E-1,5.8815354E-1,4.799865E-1,2E1,3.75E-1,5.1069736E-1,4.498545E1,2.2989033E1,2.5446451E1,6.597094E1,3.1792698E1,3.5505955E1,4.7647106E1,3.843797E1,4.019419E1,4.1672268E1,4.337751E1,5.7226982E1,4.240751E1,4.50272E1,4.668469E1,6.199222E1,3.4378033E1,5.1000774E1,5.7650497E1,2.7788225E1,4.7983944E1,5.2330513E1,7.457389E1,4.661833E1,5.0861206E1,5.351218E1,5.6330517E1,6.4782196E1,5.281811E1,5.6483906E1,5.8618584E1,5.6384808E1,5.9553375E1,5.217541E1,5.6712734E1,6.189996E1,3.824252E1,6.3722656E1,6.669542E1,5.358503E1,5.9803974E1,5.760294E1,6.2552242E1,6.6586624E1,7.412514E1,6.3979034E1,6.5653854E1,6.731572E1,6.583255E1,6.91896E1,6.730675E1,7.135925E1,5.9700302E1,7.4711075E1,7.718095E1],"split_indices":[13,13,15,13,13,13,15,13,13,13,15,11,5,15,15,13,13,15,15,15,5,5,15,15,5,13,15,5,13,0,13,0,15,1,15,15,0,13,13,13,13,15,14,14,15,15,14,3,0,15,15,13,15,15,4,13,14,11,1,14,15,0,0,0,0,0,0,0,0,0,0,0,0,0,0,0,0,0,0,0,0,0,0,0,0,0,0,0,0,0,0,0,0,0,0,0,0,0,0,0,0,0,0,0,0,0,0,0,0,0,0,0,0,0,0],"split_type":[0,0,0,0,0,0,0,0,0,0,0,0,0,0,0,0,0,0,0,0,0,0,0,0,0,0,0,0,0,0,0,0,0,0,0,0,0,0,0,0,0,0,0,0,0,0,0,0,0,0,0,0,0,0,0,0,0,0,0,0,0,0,0,0,0,0,0,0,0,0,0,0,0,0,0,0,0,0,0,0,0,0,0,0,0,0,0,0,0,0,0,0,0,0,0,0,0,0,0,0,0,0,0,0,0,0,0,0,0,0,0,0,0,0,0],"sum_hessian":[1.5289E4,7.249E3,8.04E3,2.825E3,4.424E3,4.195E3,3.845E3,1.179E3,1.646E3,1.275E3,3.149E3,1.58E3,2.615E3,2.618E3,1.227E3,1.15E2,1.064E3,9.17E2,7.29E2,6.03E2,6.72E2,1.832E3,1.317E3,9.68E2,6.12E2,7.08E2,1.907E3,9.84E2,1.634E3,5.08E2,7.19E2,1.1E1,1.04E2,3.03E2,7.61E2,9.13E2,4E0,7.05E2,2.4E1,5.93E2,1E1,2.69E2,4.03E2,6.09E2,1.223E3,1.273E3,4.4E1,9.3E2,3.8E1,1.59E2,4.53E2,3.7E2,3.38E2,1.118E3,7.89E2,1.66E2,8.18E2,1.002E3,6.32E2,4.3E1,6.76E2,2.2E1,8.2E1,3E0,3E2,7.55E2,6E0,4.55E2,4.58E2,3.71E2,3.34E2,9E0,1.5E1,3.41E2,2.52E2,8E0,2E0,2.55E2,1.4E1,1E0,4.02E2,6.08E2,1E0,7.1E1,1.152E3,1.034E3,2.39E2,3.8E1,6E0,7.6E1,8.54E2,3.5E1,1.24E2,4.6E1,4.07E2,3.69E2,1E0,2.18E2,1.2E2,7E1,1.048E3,2.4E1,7.65E2,1.6E2,6E0,4.35E2,3.83E2,8.1E2,1.92E2,5.03E2,1.29E2,4E1,3E0,5.44E2,1.32E2],"tree_param":{"num_deleted":"0","num_feature":"16","num_nodes":"115","size_leaf_vector":"0"}},{"base_weights":[5.1902812E3,4.2916133E3,6.00049E3,3.5332483E3,4.7758115E3,5.6112773E3,6.42502E3,3.115172E3,3.7977285E3,4.3941763E3,4.884171E3,5.4115786E3,5.7295957E3,6.234082E3,6.832029E3,2.2766047E3,3.2134019E3,3.6607712E3,3.9854082E3,4.3660645E3,5.080782E3,4.7621626E3,5.0707324E3,5.4711333E3,5.316992E3,5.904915E3,5.6641465E3,6.082677E3,6.3249883E3,6.595715E3,6.99832E3,1.8102578E3,2.3347283E3,2.8021394E3,3.2651653E3,3.6529744E3,5.1403306E3,3.9676357E3,4.494101E3,4.2232114E3,4.5061484E3,5.308048E3,4.1889707E3,4.88367E3,4.698043E3,5.0493203E3,6.2449785E3,5.46062E3,5.967122E3,5.501034E3,5.252325E3,5.7512285E3,6.0307964E3,5.5492383E3,5.8281987E3,6.247013E3,6.0487827E3,6.2605293E3,6.426462E3,6.5979023E3,7.023088E3,2.2070652E3,2.4018928E3,2.7540183E3,4.41415E3,7.2355586E3,3.26E3,3.5658025E3,3.7511572E3,2.7561733E3,3.972531E3,5.2734067E3,3.9134302E3,3.2818416E3,4.22879E3,4.7003706E3,4.391374E3,5.434753E3,4.067502E3,3.873611E3,4.968308E3,4.825502E3,4.9966206E3,4.61339E3,4.789418E3,5.253781E3,4.994069E3,6.0186533E3,6.844894E3,5.5538574E3,5.4275854E3,5.2458955E3,5.5690166E3,4.55989E3,5.2754473E3,5.756967E3,3.6421304E3,6.0167095E3,7.263781E3,5.0043643E3,5.5848794E3,5.3797134E3,5.8417637E3,6.218559E3,6.9234263E3,5.9750166E3,6.13143E3,6.2866255E3,6.1481313E3,6.461631E3,6.2858184E3,6.664373E3,5.576808E3,6.984846E3,7.2460293E3],"categories":[],"categories_nodes":[],"categories_segments":[],"categories_sizes":[],"default_left":[1,1,1,1,1,1,1,1,1,1,1,1,1,1,1,1,1,1,1,1,1,1,1,1,1,1,1,1,1,0,1,0,1,1,1,1,0,1,1,1,1,1,1,1,1,1,1,1,0,1,1,1,1,1,1,1,1,1,1,1,1,0,0,0,0,0,0,0,0,0,0,0,0,0,0,0,0,0,0,0,0,0,0,0,0,0,0,0,0,0,0,0,0,0,0,0,0,0,0,0,0,0,0,0,0,0,0,0,0,0,0,0,0,0,0],"id":14,"left_children":[1,3,5,7,9,11,13,15,17,19,21,23,25,27,29,31,33,35,37,39,41,43,45,47,49,51,53,55,57,-1,59,-1,61,63,65,67,-1,69,71,73,75,77,79,81,83,85,87,89,-1,91,93,95,97,99,101,103,105,107,109,111,113,-1,-1,-1,-1,-1,-1,-1,-1,-1,-1,-1,-1,-1,-1,-1,-1,-1,-1,-1,-1,-1,-1,-1,-1,-1,-1,-1,-1,-1,-1,-1,-1,-1,-1,-1,-1,-1,-1,-1,-1,-1,-1,-1,-1,-1,-1,-1,-1,-1,-1,-1,-1,-1,-1],"loss_changes":[1.1130274E10,2.660647E9,1.3258588E9,3.1152947E8,1.8141184E8,9.690317E7,2.9576397E8,8.967987E7,4.342579E7,1.7307648E7,7.668531E7,6.713344E6,2.7820032E7,3.3284096E7,4.491264E7,2.816128E6,2.020864E7,1.0202112E7,5.313536E6,1.7467392E7,6.122688E6,1.4598144E7,3.1965184E7,2.650112E6,5.141504E6,1.1327488E7,3.386163E7,2.772992E6,7.798784E6,0E0,3.80928E6,0E0,4.95296E5,7.667072E6,1.61536E7,7.566336E6,0E0,3.395584E6,9.413824E6,1.458176E6,9.089024E6,3.1424E6,6.0448E5,2.989056E6,8.984576E6,1.3221888E7,3.15648E5,7.24992E5,0E0,6.13376E5,5.480448E6,2.408448E6,3.659776E6,1.9939328E7,2.547712E6,1.1008E5,2.359296E6,1.67936E5,2.12992E5,2.5984E5,2.138112E6,0E0,0E0,0E0,0E0,0E0,0E0,0E0,0E0,0E0,0E0,0E0,0E0,0E0,0E0,0E0,0E0,0E0,0E0,0E0,0E0,0E0,0E0,0E0,0E0,0E0,0E0,0E0,0E0,0E0,0E0,0E0,0E0,0E0,0E0,0E0,0E0,0E0,0E0,0E0,0E0,0E0,0E0,0E0,0E0,0E0,0E0,0E0,0E0,0E0,0E0,0E0,0E0,0E0,0E0],"parents":[2147483647,0,0,1,1,2,2,3,3,4,4,5,5,6,6,7,7,8,8,9,9,10,10,11,11,12,12,13,13,14,14,15,15,16,16,17,17,18,18,19,19,20,20,21,21,22,22,23,23,24,24,25,25,26,26,27,27,28,28,30,30,32,32,33,33,34,34,35,35,37,37,38,38,39,39,40,40,41,41,42,42,43,43,44,44,45,45,46,46,47,47,49,49,50,50,51,51,52,52,53,53,54,54,55,55,56,56,57,57,58,58,59,59,60,60],"right_children":[2,4,6,8,10,12,14,16,18,20,22,24,26,28,30,32,34,36,38,40,42,44,46,48,50,52,54,56,58,-1,60,-1,62,64,66,68,-1,70,72,74,76,78,80,82,84,86,88,90,-1,92,94,96,98,100,102,104,106,108,110,112,114,-1,-1,-1,-1,-1,-1,-1,-1,-1,-1,-1,-1,-1,-1,-1,-1,-1,-1,-1,-1,-1,-1,-1,-1,-1,-1,-1,-1,-1,-1,-1,-1,-1,-1,-1,-1,-1,-1,-1,-1,-1,-1,-1,-1,-1,-1,-1,-1,-1,-1,-1,-1,-1,-1],"split_conditions":[5.001868E-1,4.3460706E-1,3.909825E1,3.8591194E-1,4.5666414E-1,5.2330303E-1,4.1960236E1,3.108172E-1,4.0993008E-1,3.4926014E1,3.507263E1,2E1,7.355E1,4.003293E1,4.2989113E1,2.4222079E-1,2.8027657E1,3.528042E1,3.414044E1,4.477248E-1,4.3127847E-1,7.355E1,3.9371788E1,3.8476048E1,7.355E1,5.3747416E-1,3.7992805E1,7.355E1,5.8815354E-1,6.987721E1,5.663373E-1,1.9178478E1,3.5226235E-1,3.7392694E-1,7.95E-2,3.1018433E1,5.4458385E1,2.881813E1,4.2801076E-1,2.9314283E1,4.0988505E-1,3.8655983E1,3.619934E1,4.7895935E-1,4.7413427E-1,7.355E1,4.929049E-1,7.355E1,6.3217693E1,3.5245884E1,3.4073784E1,6.25E-1,6.201496E-1,3.498423E1,3.15E-1,5.8815354E-1,4.799865E-1,2E1,3.75E-1,5.1069736E-1,4.5196976E1,2.338239E1,2.5446459E1,2.9176994E1,4.6764984E1,7.665594E1,3.4537533E1,3.7777306E1,3.9741016E1,2.9199825E1,4.2086327E1,5.586824E1,4.1460194E1,3.476893E1,4.480122E1,4.9797302E1,4.652369E1,5.7577595E1,4.309248E1,4.1038334E1,5.263592E1,5.1122986E1,5.2935875E1,4.88758E1,5.07407E1,5.5660316E1,5.290884E1,6.3763634E1,7.2517105E1,5.8839428E1,5.750166E1,5.5576775E1,5.900003E1,4.8309006E1,5.588986E1,6.0991238E1,3.858595E1,6.374304E1,7.695493E1,5.3017914E1,5.9168087E1,5.6994488E1,6.1889603E1,6.58815E1,7.33491E1,6.330133E1,6.495843E1,6.6602615E1,6.513537E1,6.845669E1,6.659407E1,7.060461E1,5.9082577E1,7.39998E1,7.676686E1],"split_indices":[13,13,15,13,13,13,15,13,13,15,15,11,5,15,15,13,15,15,15,13,14,5,15,15,5,13,15,5,13,0,13,0,14,13,2,15,0,15,13,15,14,15,15,13,13,5,13,5,0,15,15,1,13,15,4,13,14,11,1,14,15,0,0,0,0,0,0,0,0,0,0,0,0,0,0,0,0,0,0,0,0,0,0,0,0,0,0,0,0,0,0,0,0,0,0,0,0,0,0,0,0,0,0,0,0,0,0,0,0,0,0,0,0,0,0],"split_type":[0,0,0,0,0,0,0,0,0,0,0,0,0,0,0,0,0,0,0,0,0,0,0,0,0,0,0,0,0,0,0,0,0,0,0,0,0,0,0,0,0,0,0,0,0,0,0,0,0,0,0,0,0,0,0,0,0,0,0,0,0,0,0,0,0,0,0,0,0,0,0,0,0,0,0,0,0,0,0,0,0,0,0,0,0,0,0,0,0,0,0,0,0,0,0,0,0,0,0,0,0,0,0,0,0,0,0,0,0,0,0,0,0,0,0],"sum_hessian":[1.5289E4,7.249E3,8.04E3,2.825E3,4.424E3,4.195E3,3.845E3,1.095E3,1.73E3,9.79E2,3.445E3,1.562E3,2.633E3,2.618E3,1.227E3,1.15E2,9.8E2,1.001E3,7.29E2,9.41E2,3.8E1,2.084E3,1.361E3,9.56E2,6.06E2,7.14E2,1.919E3,9.84E2,1.634E3,5.08E2,7.19E2,1.3E1,1.02E2,1.1E2,8.7E2,9.96E2,5E0,7.05E2,2.4E1,4.67E2,4.74E2,3E1,8E0,7.18E2,1.366E3,1.337E3,2.4E1,9.37E2,1.9E1,1.56E2,4.5E2,3.23E2,3.91E2,1.13E3,7.89E2,1.66E2,8.18E2,1.002E3,6.32E2,4.3E1,6.76E2,3.6E1,6.6E1,1.07E2,3E0,1E0,8.69E2,5.29E2,4.67E2,3E0,7.02E2,1E1,1.4E1,3E0,4.64E2,1.75E2,2.99E2,2.7E1,3E0,6E0,2E0,4.76E2,2.42E2,7.11E2,6.55E2,2.83E2,1.054E3,1.8E1,6E0,2.42E2,6.95E2,3.4E1,1.22E2,1.5E1,4.35E2,3.22E2,1E0,3.87E2,4E0,7E1,1.06E3,2.4E1,7.65E2,1.6E2,6E0,4.35E2,3.83E2,8.1E2,1.92E2,5.03E2,1.29E2,4E1,3E0,5.79E2,9.7E1],"tree_param":{"num_deleted":"0","num_feature":"16","num_nodes":"115","size_leaf_vector":"0"}},{"base_weights":[5.1353086E3,4.24616E3,5.9369346E3,3.4958298E3,4.725228E3,5.551844E3,6.356968E3,3.106929E3,3.7742454E3,4.408796E3,4.853245E3,5.356056E3,5.6699907E3,6.168051E3,6.7596685E3,2.2525278E3,3.199117E3,3.6396296E3,3.9432021E3,4.243555E3,4.556602E3,4.7313643E3,5.0225195E3,5.4150786E3,5.262077E3,5.845097E3,5.6047627E3,6.030396E3,6.265959E3,6.525847E3,6.924205E3,1.7461412E3,2.3048486E3,3.1839316E3,4.6227505E3,3.6335356E3,4.942128E3,3.9256086E3,4.446779E3,4.218151E3,4.930872E3,4.7464497E3,4.429058E3,4.839543E3,4.677216E3,4.993729E3,5.8459946E3,5.400652E3,5.7573267E3,5.4407305E3,5.19852E3,5.735501E3,6.015106E3,5.4902837E3,5.766464E3,6.189535E3,5.999477E3,6.2049214E3,6.3635776E3,6.528218E3,6.9486987E3,2.1823408E3,2.3758687E3,2.937144E3,3.281051E3,3.7590002E3,6.041538E3,3.5619507E3,3.7271667E3,3.9283281E3,1.8764176E3,5.289457E3,3.9184229E3,4.1115386E3,4.2788813E3,5.259949E3,3.464326E3,4.7129844E3,5.32889E3,2.5513955E3,4.4332734E3,4.7817554E3,4.9731865E3,4.303781E3,4.6999624E3,4.9432593E3,5.2039893E3,5.989168E3,4.8792383E3,5.2173027E3,5.4165293E3,6.9116714E3,5.428291E3,4.819411E3,5.2405117E3,5.7398413E3,3.606125E3,5.731339E3,6.0903413E3,4.9514004E3,5.525937E3,5.3228887E3,5.77988E3,6.1593345E3,6.759687E3,5.9106616E3,6.0826543E3,6.4038647E3,6.2117354E3,6.5938945E3,5.519104E3,6.903292E3,7.1319834E3],"categories":[],"categories_nodes":[],"categories_segments":[],"categories_sizes":[],"default_left":[1,1,1,1,1,1,1,1,1,1,1,1,1,1,1,1,1,1,1,1,1,1,1,1,1,1,1,1,1,0,1,0,1,1,1,1,0,1,1,1,1,1,1,1,1,1,1,1,0,1,1,1,1,1,1,1,1,0,1,1,1,0,0,0,0,0,0,0,0,0,0,0,0,0,0,0,0,0,0,0,0,0,0,0,0,0,0,0,0,0,0,0,0,0,0,0,0,0,0,0,0,0,0,0,0,0,0,0,0,0,0,0,0],"id":15,"left_children":[1,3,5,7,9,11,13,15,17,19,21,23,25,27,29,31,33,35,37,39,41,43,45,47,49,51,53,55,57,-1,59,-1,61,63,65,67,-1,69,71,73,75,77,79,81,83,85,87,89,-1,91,93,95,97,99,101,103,105,-1,107,109,111,-1,-1,-1,-1,-1,-1,-1,-1,-1,-1,-1,-1,-1,-1,-1,-1,-1,-1,-1,-1,-1,-1,-1,-1,-1,-1,-1,-1,-1,-1,-1,-1,-1,-1,-1,-1,-1,-1,-1,-1,-1,-1,-1,-1,-1,-1,-1,-1,-1,-1,-1,-1],"loss_changes":[1.0895688E10,2.6045563E9,1.2979732E9,3.050496E8,1.7767629E8,9.486336E7,2.8953805E8,9.235456E7,3.641139E7,2.9755392E7,6.3266816E7,6.721536E6,2.752512E7,3.2587776E7,4.3966464E7,2.76032E6,2.1948416E7,5.991424E6,5.208064E6,9.038848E6,1.4767104E7,9.109504E6,2.9134848E7,2.553856E6,4.921344E6,1.0719232E7,3.303424E7,2.70336E6,6.279168E6,0E0,3.72736E6,0E0,5.33824E5,2.4549376E7,1.1940416E7,5.168128E6,0E0,3.400704E6,9.232E6,2.506752E6,8.863328E6,3.444736E6,2.378752E6,2.999296E6,8.93952E6,1.166336E7,4.005632E6,6.81984E5,0E0,2.21696E5,5.403648E6,2.509824E6,3.393536E6,1.9519488E7,2.490368E6,3.0208E4,4.179968E6,0E0,7.2704E5,2.46528E5,2.095104E6,0E0,0E0,0E0,0E0,0E0,0E0,0E0,0E0,0E0,0E0,0E0,0E0,0E0,0E0,0E0,0E0,0E0,0E0,0E0,0E0,0E0,0E0,0E0,0E0,0E0,0E0,0E0,0E0,0E0,0E0,0E0,0E0,0E0,0E0,0E0,0E0,0E0,0E0,0E0,0E0,0E0,0E0,0E0,0E0,0E0,0E0,0E0,0E0,0E0,0E0,0E0,0E0],"parents":[2147483647,0,0,1,1,2,2,3,3,4,4,5,5,6,6,7,7,8,8,9,9,10,10,11,11,12,12,13,13,14,14,15,15,16,16,17,17,18,18,19,19,20,20,21,21,22,22,23,23,24,24,25,25,26,26,27,27,28,28,30,30,32,32,33,33,34,34,35,35,37,37,38,38,39,39,40,40,41,41,42,42,43,43,44,44,45,45,46,46,47,47,49,49,50,50,51,51,52,52,53,53,54,54,55,55,56,56,58,58,59,59,60,60],"right_children":[2,4,6,8,10,12,14,16,18,20,22,24,26,28,30,32,34,36,38,40,42,44,46,48,50,52,54,56,58,-1,60,-1,62,64,66,68,-1,70,72,74,76,78,80,82,84,86,88,90,-1,92,94,96,98,100,102,104,106,-1,108,110,112,-1,-1,-1,-1,-1,-1,-1,-1,-1,-1,-1,-1,-1,-1,-1,-1,-1,-1,-1,-1,-1,-1,-1,-1,-1,-1,-1,-1,-1,-1,-1,-1,-1,-1,-1,-1,-1,-1,-1,-1,-1,-1,-1,-1,-1,-1,-1,-1,-1,-1,-1,-1],"split_conditions":[5.001868E-1,4.3460706E-1,3.909825E1,3.8840875E-1,4.628189E-1,5.235652E-1,4.1960236E1,3.108172E-1,4.0993008E-1,4.4987625E-1,3.5117085E1,2E1,7.355E1,4.0169823E1,4.2989113E1,2.3473534E-1,3.5265114E1,3.528042E1,3.414044E1,3.4923595E1,7.355E1,7.355E1,3.8178528E1,3.7963993E1,7.355E1,5.446439E-1,3.7992805E1,7.355E1,5.900761E-1,6.913702E1,5.663373E-1,1.8499207E1,2.7215397E-1,3.505056E-1,9.03E1,4.018612E-1,5.2358562E1,3.4057877E1,4.262571E-1,4.41018E-1,4.4773418E-1,3.478343E1,3.8451922E-1,3.4280334E1,3.2672382E1,3.6028908E1,4.4791597E-1,3.15E-1,6.099505E1,3.985752E-1,3.5500755E1,6.25E-1,4.422902E-1,3.498423E1,3.15E-1,5.8815354E-1,4.799865E-1,6.5737015E1,2E1,5.1069736E-1,4.498545E1,2.3120451E1,2.517075E1,3.1117088E1,3.4760555E1,3.982411E1,6.400608E1,3.77365E1,3.9486855E1,4.1618027E1,1.9879398E1,5.603828E1,4.1513084E1,4.3559017E1,4.5331905E1,5.5725666E1,3.6702232E1,4.993094E1,5.645605E1,2.703034E1,4.6967587E1,5.065952E1,5.2687607E1,4.5595695E1,4.9792976E1,5.237055E1,5.513281E1,6.3451256E1,5.1692287E1,5.5273853E1,5.738453E1,7.322456E1,5.7509136E1,5.1058456E1,5.5519737E1,6.0809803E1,3.82045E1,6.0719727E1,6.452312E1,5.2456795E1,5.854363E1,5.6392467E1,6.1233986E1,6.525406E1,7.161439E1,6.261953E1,6.444168E1,6.784469E1,6.5809204E1,6.985793E1,5.8471237E1,7.313579E1,7.5558624E1],"split_indices":[13,13,15,13,13,13,15,13,13,13,15,11,5,15,15,13,15,15,15,15,5,5,15,15,5,13,15,5,13,0,13,0,13,13,5,13,0,15,13,13,13,15,14,15,15,15,14,3,0,14,15,1,14,15,4,13,14,0,11,14,15,0,0,0,0,0,0,0,0,0,0,0,0,0,0,0,0,0,0,0,0,0,0,0,0,0,0,0,0,0,0,0,0,0,0,0,0,0,0,0,0,